digraph Tree {
node [shape=box, style="filled, rounded", color="black", fontname="helvetica"] ;
edge [fontname="helvetica"] ;
0 [label=<causa_acidente &le; 1.026<br/>gini = 0.8<br/>samples = 343786<br/>value = [68757.2, 68757.2, 68757.2, 68757.2, 68757.2]<br/>class = Perda de controle>, fillcolor="#ffffff"] ;
1 [label=<causa_acidente &le; 0.794<br/>gini = 0.12<br/>samples = 20066<br/>value = [51054.044, 820.139, 400.31, 810.665, 1362.061]<br/>class = Atropelamento>, fillcolor="#e78946"] ;
0 -> 1 [labeldistance=2.5, labelangle=45, headlabel="True"] ;
2 [label=<causa_acidente &le; 0.36<br/>gini = 0.097<br/>samples = 18249<br/>value = [50277.341, 322.773, 352.273, 752.911, 1214.206]<br/>class = Atropelamento>, fillcolor="#e68743"] ;
1 -> 2 ;
3 [label=<fase_dia &le; 1.608<br/>gini = 0.048<br/>samples = 10811<br/>value = [32043.754, 136.518, 184.142, 111.986, 367.398]<br/>class = Atropelamento>, fillcolor="#e6843e"] ;
2 -> 3 ;
4 [label=<dia_semana &le; 1.673<br/>gini = 0.033<br/>samples = 5372<br/>value = [16219.21, 48.708, 64.05, 40.85, 120.973]<br/>class = Atropelamento>, fillcolor="#e5833c"] ;
3 -> 4 ;
5 [label=<causa_acidente &le; 0.083<br/>gini = 0.041<br/>samples = 3653<br/>value = [11003.299, 32.243, 64.05, 29.581, 107.531]<br/>class = Atropelamento>, fillcolor="#e6843d"] ;
4 -> 5 ;
6 [label=<dia_semana &le; 1.634<br/>gini = 0.02<br/>samples = 688<br/>value = [2105.94, 4.116, 8.006, 4.93, 4.48]<br/>class = Atropelamento>, fillcolor="#e5823b"] ;
5 -> 6 ;
7 [label=<uf &le; 1.43<br/>gini = 0.01<br/>samples = 413<br/>value = [1259.775, 3.087, 0.0, 3.522, 0.0]<br/>class = Atropelamento>, fillcolor="#e5823a"] ;
6 -> 7 ;
8 [label=<tipo_pista &le; 1.686<br/>gini = 0.043<br/>samples = 11<br/>value = [31.573, 0.0, 0.0, 0.704, 0.0]<br/>class = Atropelamento>, fillcolor="#e6843d"] ;
7 -> 8 ;
9 [label=<gini = 0.0<br/>samples = 6<br/>value = [18.944, 0.0, 0.0, 0.0, 0.0]<br/>class = Atropelamento>, fillcolor="#e58139"] ;
8 -> 9 ;
10 [label=<gini = 0.1<br/>samples = 5<br/>value = [12.629, 0.0, 0.0, 0.704, 0.0]<br/>class = Atropelamento>, fillcolor="#e68844"] ;
8 -> 10 ;
11 [label=<uf &le; 1.636<br/>gini = 0.01<br/>samples = 402<br/>value = [1228.202, 3.087, 0.0, 2.817, 0.0]<br/>class = Atropelamento>, fillcolor="#e5823a"] ;
7 -> 11 ;
12 [label=<dia_semana &le; 1.618<br/>gini = 0.014<br/>samples = 147<br/>value = [445.184, 1.029, 0.0, 2.113, 0.0]<br/>class = Atropelamento>, fillcolor="#e5823a"] ;
11 -> 12 ;
13 [label=<gini = 0.028<br/>samples = 58<br/>value = [170.496, 0.343, 0.0, 2.113, 0.0]<br/>class = Atropelamento>, fillcolor="#e5833c"] ;
12 -> 13 ;
14 [label=<gini = 0.005<br/>samples = 89<br/>value = [274.688, 0.686, 0.0, 0.0, 0.0]<br/>class = Atropelamento>, fillcolor="#e58139"] ;
12 -> 14 ;
15 [label=<uso_solo &le; 1.637<br/>gini = 0.007<br/>samples = 255<br/>value = [783.018, 2.058, 0.0, 0.704, 0.0]<br/>class = Atropelamento>, fillcolor="#e5813a"] ;
11 -> 15 ;
16 [label=<gini = 0.014<br/>samples = 112<br/>value = [334.677, 1.715, 0.0, 0.704, 0.0]<br/>class = Atropelamento>, fillcolor="#e5823a"] ;
15 -> 16 ;
17 [label=<gini = 0.002<br/>samples = 143<br/>value = [448.341, 0.343, 0.0, 0.0, 0.0]<br/>class = Atropelamento>, fillcolor="#e58139"] ;
15 -> 17 ;
18 [label=<uf &le; 1.473<br/>gini = 0.034<br/>samples = 275<br/>value = [846.165, 1.029, 8.006, 1.409, 4.48]<br/>class = Atropelamento>, fillcolor="#e5833c"] ;
6 -> 18 ;
19 [label=<uf &le; 1.466<br/>gini = 0.081<br/>samples = 33<br/>value = [101.035, 0.0, 0.0, 0.0, 4.48]<br/>class = Atropelamento>, fillcolor="#e68742"] ;
18 -> 19 ;
20 [label=<gini = -0.0<br/>samples = 27<br/>value = [85.248, 0.0, 0.0, 0.0, 0.0]<br/>class = Atropelamento>, fillcolor="#e58139"] ;
19 -> 20 ;
21 [label=<gini = 0.344<br/>samples = 6<br/>value = [15.787, 0.0, 0.0, 0.0, 4.48]<br/>class = Atropelamento>, fillcolor="#eca571"] ;
19 -> 21 ;
22 [label=<condicao_metereologica &le; 1.621<br/>gini = 0.027<br/>samples = 242<br/>value = [745.13, 1.029, 8.006, 1.409, 0.0]<br/>class = Atropelamento>, fillcolor="#e5833c"] ;
18 -> 22 ;
23 [label=<uf &le; 1.672<br/>gini = 0.009<br/>samples = 150<br/>value = [460.97, 0.686, 0.0, 1.409, 0.0]<br/>class = Atropelamento>, fillcolor="#e5823a"] ;
22 -> 23 ;
24 [label=<gini = 0.0<br/>samples = 69<br/>value = [217.856, 0.0, 0.0, 0.0, 0.0]<br/>class = Atropelamento>, fillcolor="#e58139"] ;
23 -> 24 ;
25 [label=<gini = 0.017<br/>samples = 81<br/>value = [243.114, 0.686, 0.0, 1.409, 0.0]<br/>class = Atropelamento>, fillcolor="#e5823b"] ;
23 -> 25 ;
26 [label=<dia_semana &le; 1.648<br/>gini = 0.056<br/>samples = 92<br/>value = [284.16, 0.343, 8.006, 0.0, 0.0]<br/>class = Atropelamento>, fillcolor="#e6853f"] ;
22 -> 26 ;
27 [label=<gini = 0.128<br/>samples = 38<br/>value = [113.664, 0.343, 8.006, 0.0, 0.0]<br/>class = Atropelamento>, fillcolor="#e78a48"] ;
26 -> 27 ;
28 [label=<gini = -0.0<br/>samples = 54<br/>value = [170.496, 0.0, 0.0, 0.0, 0.0]<br/>class = Atropelamento>, fillcolor="#e58139"] ;
26 -> 28 ;
29 [label=<uf &le; 1.488<br/>gini = 0.046<br/>samples = 2965<br/>value = [8897.359, 28.127, 56.043, 24.651, 103.051]<br/>class = Atropelamento>, fillcolor="#e6843e"] ;
5 -> 29 ;
30 [label=<dia_semana &le; 1.648<br/>gini = 0.02<br/>samples = 455<br/>value = [1392.383, 3.087, 0.0, 2.113, 8.961]<br/>class = Atropelamento>, fillcolor="#e5823b"] ;
29 -> 30 ;
31 [label=<causa_acidente &le; 0.111<br/>gini = 0.007<br/>samples = 367<br/>value = [1130.325, 2.058, 0.0, 2.113, 0.0]<br/>class = Atropelamento>, fillcolor="#e5813a"] ;
30 -> 31 ;
32 [label=<condicao_metereologica &le; 1.621<br/>gini = 0.003<br/>samples = 165<br/>value = [517.802, 0.0, 0.0, 0.704, 0.0]<br/>class = Atropelamento>, fillcolor="#e58139"] ;
31 -> 32 ;
33 [label=<gini = 0.0<br/>samples = 126<br/>value = [397.824, 0.0, 0.0, 0.0, 0.0]<br/>class = Atropelamento>, fillcolor="#e58139"] ;
32 -> 33 ;
34 [label=<gini = 0.012<br/>samples = 39<br/>value = [119.979, 0.0, 0.0, 0.704, 0.0]<br/>class = Atropelamento>, fillcolor="#e5823a"] ;
32 -> 34 ;
35 [label=<dia_semana &le; 1.618<br/>gini = 0.011<br/>samples = 202<br/>value = [612.522, 2.058, 0.0, 1.409, 0.0]<br/>class = Atropelamento>, fillcolor="#e5823a"] ;
31 -> 35 ;
36 [label=<gini = 0.019<br/>samples = 73<br/>value = [217.856, 0.686, 0.0, 1.409, 0.0]<br/>class = Atropelamento>, fillcolor="#e5823b"] ;
35 -> 36 ;
37 [label=<gini = 0.007<br/>samples = 129<br/>value = [394.666, 1.372, 0.0, 0.0, 0.0]<br/>class = Atropelamento>, fillcolor="#e5813a"] ;
35 -> 37 ;
38 [label=<uf &le; 1.43<br/>gini = 0.071<br/>samples = 88<br/>value = [262.058, 1.029, 0.0, 0.0, 8.961]<br/>class = Atropelamento>, fillcolor="#e68641"] ;
30 -> 38 ;
39 [label=<gini = 0.256<br/>samples = 9<br/>value = [25.259, 0.0, 0.0, 0.0, 4.48]<br/>class = Atropelamento>, fillcolor="#ea975c"] ;
38 -> 39 ;
40 [label=<condicao_metereologica &le; 1.621<br/>gini = 0.045<br/>samples = 79<br/>value = [236.8, 1.029, 0.0, 0.0, 4.48]<br/>class = Atropelamento>, fillcolor="#e6843e"] ;
38 -> 40 ;
41 [label=<gini = 0.004<br/>samples = 59<br/>value = [183.125, 0.343, 0.0, 0.0, 0.0]<br/>class = Atropelamento>, fillcolor="#e58139"] ;
40 -> 41 ;
42 [label=<gini = 0.162<br/>samples = 20<br/>value = [53.675, 0.686, 0.0, 0.0, 4.48]<br/>class = Atropelamento>, fillcolor="#e78d4c"] ;
40 -> 42 ;
43 [label=<uf &le; 1.53<br/>gini = 0.05<br/>samples = 2510<br/>value = [7504.976, 25.04, 56.043, 22.538, 94.09]<br/>class = Atropelamento>, fillcolor="#e6843e"] ;
29 -> 43 ;
44 [label=<condicao_metereologica &le; 1.706<br/>gini = 0.118<br/>samples = 47<br/>value = [138.923, 0.343, 0.0, 0.0, 8.961]<br/>class = Atropelamento>, fillcolor="#e78946"] ;
43 -> 44 ;
45 [label=<causa_acidente &le; 0.194<br/>gini = 0.071<br/>samples = 42<br/>value = [126.293, 0.343, 0.0, 0.0, 4.48]<br/>class = Atropelamento>, fillcolor="#e68641"] ;
44 -> 45 ;
46 [label=<gini = 0.006<br/>samples = 36<br/>value = [110.507, 0.343, 0.0, 0.0, 0.0]<br/>class = Atropelamento>, fillcolor="#e5813a"] ;
45 -> 46 ;
47 [label=<gini = 0.344<br/>samples = 6<br/>value = [15.787, 0.0, 0.0, 0.0, 4.48]<br/>class = Atropelamento>, fillcolor="#eca571"] ;
45 -> 47 ;
48 [label=<gini = 0.387<br/>samples = 5<br/>value = [12.629, 0.0, 0.0, 0.0, 4.48]<br/>class = Atropelamento>, fillcolor="#eeae7f"] ;
44 -> 48 ;
49 [label=<causa_acidente &le; 0.194<br/>gini = 0.049<br/>samples = 2463<br/>value = [7366.054, 24.697, 56.043, 22.538, 85.129]<br/>class = Atropelamento>, fillcolor="#e6843e"] ;
43 -> 49 ;
50 [label=<causa_acidente &le; 0.155<br/>gini = 0.052<br/>samples = 2228<br/>value = [6668.283, 21.61, 56.043, 19.016, 85.129]<br/>class = Atropelamento>, fillcolor="#e6843e"] ;
49 -> 50 ;
51 [label=<gini = 0.05<br/>samples = 2156<br/>value = [6463.057, 19.895, 48.037, 19.016, 80.648]<br/>class = Atropelamento>, fillcolor="#e6843e"] ;
50 -> 51 ;
52 [label=<gini = 0.123<br/>samples = 72<br/>value = [205.227, 1.715, 8.006, 0.0, 4.48]<br/>class = Atropelamento>, fillcolor="#e78946"] ;
50 -> 52 ;
53 [label=<uf &le; 1.559<br/>gini = 0.019<br/>samples = 235<br/>value = [697.77, 3.087, 0.0, 3.522, 0.0]<br/>class = Atropelamento>, fillcolor="#e5823b"] ;
49 -> 53 ;
54 [label=<gini = 0.069<br/>samples = 7<br/>value = [18.944, 0.0, 0.0, 0.704, 0.0]<br/>class = Atropelamento>, fillcolor="#e68640"] ;
53 -> 54 ;
55 [label=<gini = 0.017<br/>samples = 228<br/>value = [678.826, 3.087, 0.0, 2.817, 0.0]<br/>class = Atropelamento>, fillcolor="#e5823b"] ;
53 -> 55 ;
56 [label=<causa_acidente &le; 0.155<br/>gini = 0.016<br/>samples = 1719<br/>value = [5215.911, 16.465, 0.0, 11.269, 13.441]<br/>class = Atropelamento>, fillcolor="#e5823b"] ;
4 -> 56 ;
57 [label=<uf &le; 1.679<br/>gini = 0.014<br/>samples = 1559<br/>value = [4767.57, 11.319, 0.0, 9.156, 13.441]<br/>class = Atropelamento>, fillcolor="#e5823a"] ;
56 -> 57 ;
58 [label=<uf &le; 1.579<br/>gini = 0.018<br/>samples = 954<br/>value = [2911.059, 7.203, 0.0, 5.635, 13.441]<br/>class = Atropelamento>, fillcolor="#e5823b"] ;
57 -> 58 ;
59 [label=<uso_solo &le; 1.637<br/>gini = 0.007<br/>samples = 424<br/>value = [1307.135, 2.401, 0.0, 2.113, 0.0]<br/>class = Atropelamento>, fillcolor="#e5813a"] ;
58 -> 59 ;
60 [label=<condicao_metereologica &le; 1.869<br/>gini = 0.004<br/>samples = 264<br/>value = [820.906, 1.029, 0.0, 0.704, 0.0]<br/>class = Atropelamento>, fillcolor="#e58139"] ;
59 -> 60 ;
61 [label=<gini = 0.004<br/>samples = 247<br/>value = [770.389, 0.686, 0.0, 0.704, 0.0]<br/>class = Atropelamento>, fillcolor="#e58139"] ;
60 -> 61 ;
62 [label=<gini = 0.013<br/>samples = 17<br/>value = [50.517, 0.343, 0.0, 0.0, 0.0]<br/>class = Atropelamento>, fillcolor="#e5823a"] ;
60 -> 62 ;
63 [label=<tipo_pista &le; 1.686<br/>gini = 0.011<br/>samples = 160<br/>value = [486.229, 1.372, 0.0, 1.409, 0.0]<br/>class = Atropelamento>, fillcolor="#e5823a"] ;
59 -> 63 ;
64 [label=<gini = 0.006<br/>samples = 112<br/>value = [344.149, 1.029, 0.0, 0.0, 0.0]<br/>class = Atropelamento>, fillcolor="#e5813a"] ;
63 -> 64 ;
65 [label=<gini = 0.024<br/>samples = 48<br/>value = [142.08, 0.343, 0.0, 1.409, 0.0]<br/>class = Atropelamento>, fillcolor="#e5833b"] ;
63 -> 65 ;
66 [label=<uf &le; 1.597<br/>gini = 0.027<br/>samples = 530<br/>value = [1603.924, 4.802, 0.0, 3.522, 13.441]<br/>class = Atropelamento>, fillcolor="#e5833c"] ;
58 -> 66 ;
67 [label=<condicao_metereologica &le; 1.621<br/>gini = 0.059<br/>samples = 77<br/>value = [221.013, 1.715, 0.0, 0.704, 4.48]<br/>class = Atropelamento>, fillcolor="#e6853f"] ;
66 -> 67 ;
68 [label=<gini = 0.027<br/>samples = 53<br/>value = [151.552, 1.372, 0.0, 0.704, 0.0]<br/>class = Atropelamento>, fillcolor="#e5833c"] ;
67 -> 68 ;
69 [label=<gini = 0.122<br/>samples = 24<br/>value = [69.461, 0.343, 0.0, 0.0, 4.48]<br/>class = Atropelamento>, fillcolor="#e78a47"] ;
67 -> 69 ;
70 [label=<condicao_metereologica &le; 1.621<br/>gini = 0.021<br/>samples = 453<br/>value = [1382.911, 3.087, 0.0, 2.817, 8.961]<br/>class = Atropelamento>, fillcolor="#e5823b"] ;
66 -> 70 ;
71 [label=<gini = 0.026<br/>samples = 302<br/>value = [925.098, 1.715, 0.0, 1.409, 8.961]<br/>class = Atropelamento>, fillcolor="#e5833c"] ;
70 -> 71 ;
72 [label=<gini = 0.012<br/>samples = 151<br/>value = [457.813, 1.372, 0.0, 1.409, 0.0]<br/>class = Atropelamento>, fillcolor="#e5823a"] ;
70 -> 72 ;
73 [label=<causa_acidente &le; 0.111<br/>gini = 0.008<br/>samples = 605<br/>value = [1856.511, 4.116, 0.0, 3.522, 0.0]<br/>class = Atropelamento>, fillcolor="#e5823a"] ;
57 -> 73 ;
74 [label=<sentido_via &le; 1.664<br/>gini = 0.005<br/>samples = 342<br/>value = [1060.863, 1.715, 0.0, 0.704, 0.0]<br/>class = Atropelamento>, fillcolor="#e58139"] ;
73 -> 74 ;
75 [label=<causa_acidente &le; 0.083<br/>gini = 0.002<br/>samples = 193<br/>value = [606.208, 0.0, 0.0, 0.704, 0.0]<br/>class = Atropelamento>, fillcolor="#e58139"] ;
74 -> 75 ;
76 [label=<gini = 0.006<br/>samples = 72<br/>value = [224.171, 0.0, 0.0, 0.704, 0.0]<br/>class = Atropelamento>, fillcolor="#e5813a"] ;
75 -> 76 ;
77 [label=<gini = 0.0<br/>samples = 121<br/>value = [382.037, 0.0, 0.0, 0.0, 0.0]<br/>class = Atropelamento>, fillcolor="#e58139"] ;
75 -> 77 ;
78 [label=<condicao_metereologica &le; 1.869<br/>gini = 0.007<br/>samples = 149<br/>value = [454.656, 1.715, 0.0, 0.0, 0.0]<br/>class = Atropelamento>, fillcolor="#e5813a"] ;
74 -> 78 ;
79 [label=<gini = 0.006<br/>samples = 138<br/>value = [423.082, 1.372, 0.0, 0.0, 0.0]<br/>class = Atropelamento>, fillcolor="#e5813a"] ;
78 -> 79 ;
80 [label=<gini = 0.021<br/>samples = 11<br/>value = [31.573, 0.343, 0.0, 0.0, 0.0]<br/>class = Atropelamento>, fillcolor="#e5823b"] ;
78 -> 80 ;
81 [label=<tipo_pista &le; 1.556<br/>gini = 0.013<br/>samples = 263<br/>value = [795.647, 2.401, 0.0, 2.817, 0.0]<br/>class = Atropelamento>, fillcolor="#e5823a"] ;
73 -> 81 ;
82 [label=<dia_semana &le; 1.729<br/>gini = 0.039<br/>samples = 12<br/>value = [34.731, 0.0, 0.0, 0.704, 0.0]<br/>class = Atropelamento>, fillcolor="#e6843d"] ;
81 -> 82 ;
83 [label=<gini = 0.082<br/>samples = 6<br/>value = [15.787, 0.0, 0.0, 0.704, 0.0]<br/>class = Atropelamento>, fillcolor="#e68742"] ;
82 -> 83 ;
84 [label=<gini = 0.0<br/>samples = 6<br/>value = [18.944, 0.0, 0.0, 0.0, 0.0]<br/>class = Atropelamento>, fillcolor="#e58139"] ;
82 -> 84 ;
85 [label=<condicao_metereologica &le; 1.869<br/>gini = 0.012<br/>samples = 251<br/>value = [760.917, 2.401, 0.0, 2.113, 0.0]<br/>class = Atropelamento>, fillcolor="#e5823a"] ;
81 -> 85 ;
86 [label=<gini = 0.01<br/>samples = 237<br/>value = [719.871, 2.401, 0.0, 1.409, 0.0]<br/>class = Atropelamento>, fillcolor="#e5823a"] ;
85 -> 86 ;
87 [label=<gini = 0.033<br/>samples = 14<br/>value = [41.045, 0.0, 0.0, 0.704, 0.0]<br/>class = Atropelamento>, fillcolor="#e5833c"] ;
85 -> 87 ;
88 [label=<uf &le; 1.827<br/>gini = 0.031<br/>samples = 160<br/>value = [448.341, 5.145, 0.0, 2.113, 0.0]<br/>class = Atropelamento>, fillcolor="#e5833c"] ;
56 -> 88 ;
89 [label=<condicao_metereologica &le; 1.674<br/>gini = 0.024<br/>samples = 146<br/>value = [416.768, 4.459, 0.0, 0.704, 0.0]<br/>class = Atropelamento>, fillcolor="#e5833b"] ;
88 -> 89 ;
90 [label=<uf &le; 1.597<br/>gini = 0.028<br/>samples = 128<br/>value = [359.936, 4.459, 0.0, 0.704, 0.0]<br/>class = Atropelamento>, fillcolor="#e5833c"] ;
89 -> 90 ;
91 [label=<condicao_metereologica &le; 1.621<br/>gini = 0.038<br/>samples = 39<br/>value = [104.192, 2.058, 0.0, 0.0, 0.0]<br/>class = Atropelamento>, fillcolor="#e6833d"] ;
90 -> 91 ;
92 [label=<gini = 0.056<br/>samples = 28<br/>value = [69.461, 2.058, 0.0, 0.0, 0.0]<br/>class = Atropelamento>, fillcolor="#e6853f"] ;
91 -> 92 ;
93 [label=<gini = 0.0<br/>samples = 11<br/>value = [34.731, 0.0, 0.0, 0.0, 0.0]<br/>class = Atropelamento>, fillcolor="#e58139"] ;
91 -> 93 ;
94 [label=<sentido_via &le; 1.664<br/>gini = 0.024<br/>samples = 89<br/>value = [255.744, 2.401, 0.0, 0.704, 0.0]<br/>class = Atropelamento>, fillcolor="#e5833b"] ;
90 -> 94 ;
95 [label=<gini = 0.03<br/>samples = 48<br/>value = [132.608, 2.058, 0.0, 0.0, 0.0]<br/>class = Atropelamento>, fillcolor="#e5833c"] ;
94 -> 95 ;
96 [label=<gini = 0.017<br/>samples = 41<br/>value = [123.136, 0.343, 0.0, 0.704, 0.0]<br/>class = Atropelamento>, fillcolor="#e5823b"] ;
94 -> 96 ;
97 [label=<gini = 0.0<br/>samples = 18<br/>value = [56.832, 0.0, 0.0, 0.0, 0.0]<br/>class = Atropelamento>, fillcolor="#e58139"] ;
89 -> 97 ;
98 [label=<dia_semana &le; 1.729<br/>gini = 0.118<br/>samples = 14<br/>value = [31.573, 0.686, 0.0, 1.409, 0.0]<br/>class = Atropelamento>, fillcolor="#e78946"] ;
88 -> 98 ;
99 [label=<gini = 0.183<br/>samples = 8<br/>value = [15.787, 0.343, 0.0, 1.409, 0.0]<br/>class = Atropelamento>, fillcolor="#e88f4f"] ;
98 -> 99 ;
100 [label=<gini = 0.042<br/>samples = 6<br/>value = [15.787, 0.343, 0.0, 0.0, 0.0]<br/>class = Atropelamento>, fillcolor="#e6843d"] ;
98 -> 100 ;
101 [label=<causa_acidente &le; 0.194<br/>gini = 0.063<br/>samples = 5439<br/>value = [15824.544, 87.811, 120.093, 71.136, 246.426]<br/>class = Atropelamento>, fillcolor="#e6853f"] ;
3 -> 101 ;
102 [label=<uf &le; 1.886<br/>gini = 0.057<br/>samples = 4998<br/>value = [14656.331, 72.032, 96.074, 61.275, 210.582]<br/>class = Atropelamento>, fillcolor="#e6853f"] ;
101 -> 102 ;
103 [label=<uf &le; 1.597<br/>gini = 0.055<br/>samples = 4908<br/>value = [14397.43, 71.689, 88.068, 59.162, 197.14]<br/>class = Atropelamento>, fillcolor="#e6853f"] ;
102 -> 103 ;
104 [label=<causa_acidente &le; 0.083<br/>gini = 0.075<br/>samples = 1701<br/>value = [4884.391, 34.987, 48.037, 17.608, 94.09]<br/>class = Atropelamento>, fillcolor="#e68641"] ;
103 -> 104 ;
105 [label=<tipo_pista &le; 1.686<br/>gini = 0.099<br/>samples = 220<br/>value = [644.096, 2.058, 24.019, 4.226, 4.48]<br/>class = Atropelamento>, fillcolor="#e68844"] ;
104 -> 105 ;
106 [label=<dia_semana &le; 1.618<br/>gini = 0.047<br/>samples = 150<br/>value = [451.498, 1.029, 8.006, 2.113, 0.0]<br/>class = Atropelamento>, fillcolor="#e6843e"] ;
105 -> 106 ;
107 [label=<gini = 0.234<br/>samples = 19<br/>value = [53.675, 0.343, 8.006, 0.0, 0.0]<br/>class = Atropelamento>, fillcolor="#e99458"] ;
106 -> 107 ;
108 [label=<gini = 0.014<br/>samples = 131<br/>value = [397.824, 0.686, 0.0, 2.113, 0.0]<br/>class = Atropelamento>, fillcolor="#e5823a"] ;
106 -> 108 ;
109 [label=<condicao_metereologica &le; 1.626<br/>gini = 0.201<br/>samples = 70<br/>value = [192.597, 1.029, 16.012, 2.113, 4.48]<br/>class = Atropelamento>, fillcolor="#e89050"] ;
105 -> 109 ;
110 [label=<gini = 0.151<br/>samples = 59<br/>value = [167.339, 0.686, 8.006, 1.409, 4.48]<br/>class = Atropelamento>, fillcolor="#e78c4a"] ;
109 -> 110 ;
111 [label=<gini = 0.403<br/>samples = 11<br/>value = [25.259, 0.343, 8.006, 0.704, 0.0]<br/>class = Atropelamento>, fillcolor="#eeac7d"] ;
109 -> 111 ;
112 [label=<dia_semana &le; 1.648<br/>gini = 0.071<br/>samples = 1481<br/>value = [4240.296, 32.929, 24.019, 13.382, 89.609]<br/>class = Atropelamento>, fillcolor="#e68640"] ;
104 -> 112 ;
113 [label=<dia_semana &le; 1.634<br/>gini = 0.088<br/>samples = 846<br/>value = [2396.414, 20.581, 24.019, 7.043, 62.726]<br/>class = Atropelamento>, fillcolor="#e68742"] ;
112 -> 113 ;
114 [label=<gini = 0.07<br/>samples = 618<br/>value = [1768.105, 15.092, 16.012, 3.522, 31.363]<br/>class = Atropelamento>, fillcolor="#e68640"] ;
113 -> 114 ;
115 [label=<gini = 0.135<br/>samples = 228<br/>value = [628.309, 5.488, 8.006, 3.522, 31.363]<br/>class = Atropelamento>, fillcolor="#e78a48"] ;
113 -> 115 ;
116 [label=<causa_acidente &le; 0.155<br/>gini = 0.047<br/>samples = 635<br/>value = [1843.881, 12.348, 0.0, 6.339, 26.883]<br/>class = Atropelamento>, fillcolor="#e6843e"] ;
112 -> 116 ;
117 [label=<gini = 0.043<br/>samples = 619<br/>value = [1802.836, 11.662, 0.0, 6.339, 22.402]<br/>class = Atropelamento>, fillcolor="#e6843d"] ;
116 -> 117 ;
118 [label=<gini = 0.201<br/>samples = 16<br/>value = [41.045, 0.686, 0.0, 0.0, 4.48]<br/>class = Atropelamento>, fillcolor="#e89152"] ;
116 -> 118 ;
119 [label=<causa_acidente &le; 0.111<br/>gini = 0.045<br/>samples = 3207<br/>value = [9513.039, 36.702, 40.031, 41.554, 103.051]<br/>class = Atropelamento>, fillcolor="#e6843e"] ;
103 -> 119 ;
120 [label=<condicao_metereologica &le; 1.869<br/>gini = 0.033<br/>samples = 1672<br/>value = [5070.674, 12.691, 24.019, 12.678, 35.844]<br/>class = Atropelamento>, fillcolor="#e5833c"] ;
119 -> 120 ;
121 [label=<uf &le; 1.827<br/>gini = 0.029<br/>samples = 1589<br/>value = [4824.402, 11.662, 16.012, 12.678, 31.363]<br/>class = Atropelamento>, fillcolor="#e5833c"] ;
120 -> 121 ;
122 [label=<gini = 0.023<br/>samples = 1292<br/>value = [3934.035, 8.918, 0.0, 9.86, 26.883]<br/>class = Atropelamento>, fillcolor="#e5823b"] ;
121 -> 122 ;
123 [label=<gini = 0.056<br/>samples = 297<br/>value = [890.367, 2.744, 16.012, 2.817, 4.48]<br/>class = Atropelamento>, fillcolor="#e6853f"] ;
121 -> 123 ;
124 [label=<fase_dia &le; 1.709<br/>gini = 0.1<br/>samples = 83<br/>value = [246.272, 1.029, 8.006, 0.0, 4.48]<br/>class = Atropelamento>, fillcolor="#e68844"] ;
120 -> 124 ;
125 [label=<gini = 0.201<br/>samples = 36<br/>value = [104.192, 0.343, 8.006, 0.0, 4.48]<br/>class = Atropelamento>, fillcolor="#e89050"] ;
124 -> 125 ;
126 [label=<gini = 0.01<br/>samples = 47<br/>value = [142.08, 0.686, 0.0, 0.0, 0.0]<br/>class = Atropelamento>, fillcolor="#e5823a"] ;
124 -> 126 ;
127 [label=<sentido_via &le; 1.664<br/>gini = 0.058<br/>samples = 1535<br/>value = [4442.365, 24.011, 16.012, 28.877, 67.207]<br/>class = Atropelamento>, fillcolor="#e6853f"] ;
119 -> 127 ;
128 [label=<dia_semana &le; 1.629<br/>gini = 0.046<br/>samples = 840<br/>value = [2443.774, 13.034, 8.006, 15.495, 22.402]<br/>class = Atropelamento>, fillcolor="#e6843e"] ;
127 -> 128 ;
129 [label=<gini = 0.086<br/>samples = 228<br/>value = [653.568, 3.087, 8.006, 5.635, 13.441]<br/>class = Atropelamento>, fillcolor="#e68742"] ;
128 -> 129 ;
130 [label=<gini = 0.031<br/>samples = 612<br/>value = [1790.207, 9.947, 0.0, 9.86, 8.961]<br/>class = Atropelamento>, fillcolor="#e5833c"] ;
128 -> 130 ;
131 [label=<dia_semana &le; 1.629<br/>gini = 0.072<br/>samples = 695<br/>value = [1998.591, 10.976, 8.006, 13.382, 44.805]<br/>class = Atropelamento>, fillcolor="#e68641"] ;
127 -> 131 ;
132 [label=<gini = 0.034<br/>samples = 215<br/>value = [634.624, 2.401, 0.0, 4.226, 4.48]<br/>class = Atropelamento>, fillcolor="#e5833c"] ;
131 -> 132 ;
133 [label=<gini = 0.089<br/>samples = 480<br/>value = [1363.967, 8.575, 8.006, 9.156, 40.324]<br/>class = Atropelamento>, fillcolor="#e68742"] ;
131 -> 133 ;
134 [label=<dia_semana &le; 1.729<br/>gini = 0.159<br/>samples = 90<br/>value = [258.901, 0.343, 8.006, 2.113, 13.441]<br/>class = Atropelamento>, fillcolor="#e78c4b"] ;
102 -> 134 ;
135 [label=<uso_solo &le; 1.637<br/>gini = 0.11<br/>samples = 79<br/>value = [233.643, 0.343, 0.0, 0.704, 13.441]<br/>class = Atropelamento>, fillcolor="#e78945"] ;
134 -> 135 ;
136 [label=<dia_semana &le; 1.648<br/>gini = 0.211<br/>samples = 39<br/>value = [107.349, 0.343, 0.0, 0.704, 13.441]<br/>class = Atropelamento>, fillcolor="#e89253"] ;
135 -> 136 ;
137 [label=<fase_dia &le; 1.758<br/>gini = 0.273<br/>samples = 29<br/>value = [75.776, 0.343, 0.0, 0.704, 13.441]<br/>class = Atropelamento>, fillcolor="#ea995e"] ;
136 -> 137 ;
138 [label=<gini = 0.329<br/>samples = 23<br/>value = [56.832, 0.343, 0.0, 0.704, 13.441]<br/>class = Atropelamento>, fillcolor="#eca16b"] ;
137 -> 138 ;
139 [label=<gini = -0.0<br/>samples = 6<br/>value = [18.944, 0.0, 0.0, 0.0, 0.0]<br/>class = Atropelamento>, fillcolor="#e58139"] ;
137 -> 139 ;
140 [label=<gini = 0.0<br/>samples = 10<br/>value = [31.573, 0.0, 0.0, 0.0, 0.0]<br/>class = Atropelamento>, fillcolor="#e58139"] ;
136 -> 140 ;
141 [label=<dia_semana &le; 1.618<br/>gini = 0.0<br/>samples = 40<br/>value = [126.293, 0.0, 0.0, 0.0, 0.0]<br/>class = Atropelamento>, fillcolor="#e58139"] ;
135 -> 141 ;
142 [label=<gini = 0.0<br/>samples = 6<br/>value = [18.944, 0.0, 0.0, 0.0, 0.0]<br/>class = Atropelamento>, fillcolor="#e58139"] ;
141 -> 142 ;
143 [label=<gini = 0.0<br/>samples = 34<br/>value = [107.349, 0.0, 0.0, 0.0, 0.0]<br/>class = Atropelamento>, fillcolor="#e58139"] ;
141 -> 143 ;
144 [label=<condicao_metereologica &le; 1.621<br/>gini = 0.414<br/>samples = 11<br/>value = [25.259, 0.0, 8.006, 1.409, 0.0]<br/>class = Atropelamento>, fillcolor="#eead7f"] ;
134 -> 144 ;
145 [label=<gini = 0.508<br/>samples = 6<br/>value = [12.629, 0.0, 8.006, 0.704, 0.0]<br/>class = Atropelamento>, fillcolor="#f6d3ba"] ;
144 -> 145 ;
146 [label=<gini = 0.1<br/>samples = 5<br/>value = [12.629, 0.0, 0.0, 0.704, 0.0]<br/>class = Atropelamento>, fillcolor="#e68844"] ;
144 -> 146 ;
147 [label=<fase_dia &le; 1.758<br/>gini = 0.13<br/>samples = 441<br/>value = [1168.213, 15.778, 24.019, 9.86, 35.844]<br/>class = Atropelamento>, fillcolor="#e78a47"] ;
101 -> 147 ;
148 [label=<condicao_metereologica &le; 1.626<br/>gini = 0.169<br/>samples = 329<br/>value = [836.693, 14.063, 24.019, 8.452, 35.844]<br/>class = Atropelamento>, fillcolor="#e78d4b"] ;
147 -> 148 ;
149 [label=<condicao_metereologica &le; 1.621<br/>gini = 0.136<br/>samples = 263<br/>value = [675.669, 12.005, 8.006, 4.93, 26.883]<br/>class = Atropelamento>, fillcolor="#e78a48"] ;
148 -> 149 ;
150 [label=<dia_semana &le; 1.673<br/>gini = 0.172<br/>samples = 198<br/>value = [489.386, 10.29, 8.006, 4.226, 26.883]<br/>class = Atropelamento>, fillcolor="#e88d4c"] ;
149 -> 150 ;
151 [label=<uf &le; 1.683<br/>gini = 0.139<br/>samples = 152<br/>value = [394.666, 6.174, 0.0, 2.817, 22.402]<br/>class = Atropelamento>, fillcolor="#e78b48"] ;
150 -> 151 ;
152 [label=<gini = 0.192<br/>samples = 98<br/>value = [243.114, 4.802, 0.0, 1.409, 22.402]<br/>class = Atropelamento>, fillcolor="#e88f50"] ;
151 -> 152 ;
153 [label=<gini = 0.036<br/>samples = 54<br/>value = [151.552, 1.372, 0.0, 1.409, 0.0]<br/>class = Atropelamento>, fillcolor="#e5833d"] ;
151 -> 153 ;
154 [label=<uf &le; 1.827<br/>gini = 0.286<br/>samples = 46<br/>value = [94.72, 4.116, 8.006, 1.409, 4.48]<br/>class = Atropelamento>, fillcolor="#e9975b"] ;
150 -> 154 ;
155 [label=<gini = 0.183<br/>samples = 41<br/>value = [85.248, 4.116, 0.0, 0.704, 4.48]<br/>class = Atropelamento>, fillcolor="#e88e4d"] ;
154 -> 155 ;
156 [label=<gini = 0.533<br/>samples = 5<br/>value = [9.472, 0.0, 8.006, 0.704, 0.0]<br/>class = Atropelamento>, fillcolor="#fbede2"] ;
154 -> 156 ;
157 [label=<dia_semana &le; 1.673<br/>gini = 0.025<br/>samples = 65<br/>value = [186.283, 1.715, 0.0, 0.704, 0.0]<br/>class = Atropelamento>, fillcolor="#e5833c"] ;
149 -> 157 ;
158 [label=<uso_solo &le; 1.637<br/>gini = 0.01<br/>samples = 44<br/>value = [132.608, 0.686, 0.0, 0.0, 0.0]<br/>class = Atropelamento>, fillcolor="#e5823a"] ;
157 -> 158 ;
159 [label=<gini = 0.0<br/>samples = 33<br/>value = [104.192, 0.0, 0.0, 0.0, 0.0]<br/>class = Atropelamento>, fillcolor="#e58139"] ;
158 -> 159 ;
160 [label=<gini = 0.046<br/>samples = 11<br/>value = [28.416, 0.686, 0.0, 0.0, 0.0]<br/>class = Atropelamento>, fillcolor="#e6843e"] ;
158 -> 160 ;
161 [label=<fase_dia &le; 1.709<br/>gini = 0.061<br/>samples = 21<br/>value = [53.675, 1.029, 0.0, 0.704, 0.0]<br/>class = Atropelamento>, fillcolor="#e6853f"] ;
157 -> 161 ;
162 [label=<gini = 0.024<br/>samples = 10<br/>value = [28.416, 0.343, 0.0, 0.0, 0.0]<br/>class = Atropelamento>, fillcolor="#e5833b"] ;
161 -> 162 ;
163 [label=<gini = 0.1<br/>samples = 11<br/>value = [25.259, 0.686, 0.0, 0.704, 0.0]<br/>class = Atropelamento>, fillcolor="#e68844"] ;
161 -> 163 ;
164 [label=<tipo_pista &le; 1.686<br/>gini = 0.284<br/>samples = 66<br/>value = [161.024, 2.058, 16.012, 3.522, 8.961]<br/>class = Atropelamento>, fillcolor="#ea975b"] ;
148 -> 164 ;
165 [label=<dia_semana &le; 1.629<br/>gini = 0.468<br/>samples = 25<br/>value = [59.989, 0.343, 16.012, 0.704, 8.961]<br/>class = Atropelamento>, fillcolor="#efb083"] ;
164 -> 165 ;
166 [label=<gini = 0.486<br/>samples = 6<br/>value = [12.629, 0.0, 0.0, 0.0, 8.961]<br/>class = Atropelamento>, fillcolor="#f7dac5"] ;
165 -> 166 ;
167 [label=<dia_semana &le; 1.729<br/>gini = 0.398<br/>samples = 19<br/>value = [47.36, 0.343, 16.012, 0.704, 0.0]<br/>class = Atropelamento>, fillcolor="#eead7f"] ;
165 -> 167 ;
168 [label=<gini = 0.5<br/>samples = 12<br/>value = [25.259, 0.343, 16.012, 0.704, 0.0]<br/>class = Atropelamento>, fillcolor="#f6d3b9"] ;
167 -> 168 ;
169 [label=<gini = 0.0<br/>samples = 7<br/>value = [22.101, 0.0, 0.0, 0.0, 0.0]<br/>class = Atropelamento>, fillcolor="#e58139"] ;
167 -> 169 ;
170 [label=<uso_solo &le; 1.637<br/>gini = 0.083<br/>samples = 41<br/>value = [101.035, 1.715, 0.0, 2.817, 0.0]<br/>class = Atropelamento>, fillcolor="#e68742"] ;
164 -> 170 ;
171 [label=<uf &le; 1.69<br/>gini = 0.029<br/>samples = 25<br/>value = [69.461, 1.029, 0.0, 0.0, 0.0]<br/>class = Atropelamento>, fillcolor="#e5833c"] ;
170 -> 171 ;
172 [label=<gini = 0.013<br/>samples = 17<br/>value = [50.517, 0.343, 0.0, 0.0, 0.0]<br/>class = Atropelamento>, fillcolor="#e5823a"] ;
171 -> 172 ;
173 [label=<gini = 0.067<br/>samples = 8<br/>value = [18.944, 0.686, 0.0, 0.0, 0.0]<br/>class = Atropelamento>, fillcolor="#e68640"] ;
171 -> 173 ;
174 [label=<uf &le; 1.698<br/>gini = 0.183<br/>samples = 16<br/>value = [31.573, 0.686, 0.0, 2.817, 0.0]<br/>class = Atropelamento>, fillcolor="#e88f4f"] ;
170 -> 174 ;
175 [label=<gini = 0.1<br/>samples = 11<br/>value = [25.259, 0.686, 0.0, 0.704, 0.0]<br/>class = Atropelamento>, fillcolor="#e68844"] ;
174 -> 175 ;
176 [label=<gini = 0.376<br/>samples = 5<br/>value = [6.315, 0.0, 0.0, 2.113, 0.0]<br/>class = Atropelamento>, fillcolor="#eeab7b"] ;
174 -> 176 ;
177 [label=<uf &le; 1.579<br/>gini = 0.019<br/>samples = 112<br/>value = [331.52, 1.715, 0.0, 1.409, 0.0]<br/>class = Atropelamento>, fillcolor="#e5823b"] ;
147 -> 177 ;
178 [label=<condicao_metereologica &le; 1.621<br/>gini = 0.044<br/>samples = 27<br/>value = [75.776, 0.343, 0.0, 1.409, 0.0]<br/>class = Atropelamento>, fillcolor="#e6843e"] ;
177 -> 178 ;
179 [label=<dia_semana &le; 1.648<br/>gini = 0.074<br/>samples = 17<br/>value = [44.203, 0.343, 0.0, 1.409, 0.0]<br/>class = Atropelamento>, fillcolor="#e68641"] ;
178 -> 179 ;
180 [label=<gini = 0.0<br/>samples = 6<br/>value = [18.944, 0.0, 0.0, 0.0, 0.0]<br/>class = Atropelamento>, fillcolor="#e58139"] ;
179 -> 180 ;
181 [label=<uso_solo &le; 1.637<br/>gini = 0.123<br/>samples = 11<br/>value = [25.259, 0.343, 0.0, 1.409, 0.0]<br/>class = Atropelamento>, fillcolor="#e78a47"] ;
179 -> 181 ;
182 [label=<gini = 0.042<br/>samples = 6<br/>value = [15.787, 0.343, 0.0, 0.0, 0.0]<br/>class = Atropelamento>, fillcolor="#e6843d"] ;
181 -> 182 ;
183 [label=<gini = 0.225<br/>samples = 5<br/>value = [9.472, 0.0, 0.0, 1.409, 0.0]<br/>class = Atropelamento>, fillcolor="#e99456"] ;
181 -> 183 ;
184 [label=<gini = -0.0<br/>samples = 10<br/>value = [31.573, 0.0, 0.0, 0.0, 0.0]<br/>class = Atropelamento>, fillcolor="#e58139"] ;
178 -> 184 ;
185 [label=<tipo_pista &le; 1.556<br/>gini = 0.011<br/>samples = 85<br/>value = [255.744, 1.372, 0.0, 0.0, 0.0]<br/>class = Atropelamento>, fillcolor="#e5823a"] ;
177 -> 185 ;
186 [label=<sentido_via &le; 1.664<br/>gini = 0.032<br/>samples = 15<br/>value = [41.045, 0.686, 0.0, 0.0, 0.0]<br/>class = Atropelamento>, fillcolor="#e5833c"] ;
185 -> 186 ;
187 [label=<gini = 0.0<br/>samples = 7<br/>value = [22.101, 0.0, 0.0, 0.0, 0.0]<br/>class = Atropelamento>, fillcolor="#e58139"] ;
186 -> 187 ;
188 [label=<gini = 0.067<br/>samples = 8<br/>value = [18.944, 0.686, 0.0, 0.0, 0.0]<br/>class = Atropelamento>, fillcolor="#e68640"] ;
186 -> 188 ;
189 [label=<uf &le; 1.657<br/>gini = 0.006<br/>samples = 70<br/>value = [214.699, 0.686, 0.0, 0.0, 0.0]<br/>class = Atropelamento>, fillcolor="#e5813a"] ;
185 -> 189 ;
190 [label=<dia_semana &le; 1.673<br/>gini = 0.017<br/>samples = 27<br/>value = [78.933, 0.686, 0.0, 0.0, 0.0]<br/>class = Atropelamento>, fillcolor="#e5823b"] ;
189 -> 190 ;
191 [label=<gini = 0.046<br/>samples = 11<br/>value = [28.416, 0.686, 0.0, 0.0, 0.0]<br/>class = Atropelamento>, fillcolor="#e6843e"] ;
190 -> 191 ;
192 [label=<gini = 0.0<br/>samples = 16<br/>value = [50.517, 0.0, 0.0, 0.0, 0.0]<br/>class = Atropelamento>, fillcolor="#e58139"] ;
190 -> 192 ;
193 [label=<gini = 0.0<br/>samples = 43<br/>value = [135.765, 0.0, 0.0, 0.0, 0.0]<br/>class = Atropelamento>, fillcolor="#e58139"] ;
189 -> 193 ;
194 [label=<fase_dia &le; 1.608<br/>gini = 0.172<br/>samples = 7438<br/>value = [18233.587, 186.255, 168.13, 640.925, 846.808]<br/>class = Atropelamento>, fillcolor="#e78d4c"] ;
2 -> 194 ;
195 [label=<uso_solo &le; 1.637<br/>gini = 0.137<br/>samples = 3756<br/>value = [9936.121, 63.114, 48.037, 226.789, 434.605]<br/>class = Atropelamento>, fillcolor="#e78a48"] ;
194 -> 195 ;
196 [label=<sentido_via &le; 1.664<br/>gini = 0.189<br/>samples = 971<br/>value = [2484.82, 21.953, 16.012, 52.824, 192.66]<br/>class = Atropelamento>, fillcolor="#e88f4f"] ;
195 -> 196 ;
197 [label=<uf &le; 1.875<br/>gini = 0.154<br/>samples = 526<br/>value = [1367.124, 11.319, 8.006, 30.285, 71.687]<br/>class = Atropelamento>, fillcolor="#e78c4a"] ;
196 -> 197 ;
198 [label=<tipo_pista &le; 1.686<br/>gini = 0.146<br/>samples = 520<br/>value = [1351.338, 11.319, 0.0, 30.285, 71.687]<br/>class = Atropelamento>, fillcolor="#e78b49"] ;
197 -> 198 ;
199 [label=<uf &le; 1.473<br/>gini = 0.099<br/>samples = 288<br/>value = [757.759, 7.546, 0.0, 15.495, 17.922]<br/>class = Atropelamento>, fillcolor="#e68843"] ;
198 -> 199 ;
200 [label=<tipo_pista &le; 1.556<br/>gini = 0.15<br/>samples = 71<br/>value = [176.811, 2.744, 0.0, 3.522, 8.961]<br/>class = Atropelamento>, fillcolor="#e78b49"] ;
199 -> 200 ;
201 [label=<gini = 0.366<br/>samples = 7<br/>value = [15.787, 0.343, 0.0, 0.0, 4.48]<br/>class = Atropelamento>, fillcolor="#eda774"] ;
200 -> 201 ;
202 [label=<gini = 0.116<br/>samples = 64<br/>value = [161.024, 2.401, 0.0, 3.522, 4.48]<br/>class = Atropelamento>, fillcolor="#e78945"] ;
200 -> 202 ;
203 [label=<dia_semana &le; 1.648<br/>gini = 0.082<br/>samples = 217<br/>value = [580.949, 4.802, 0.0, 11.973, 8.961]<br/>class = Atropelamento>, fillcolor="#e68642"] ;
199 -> 203 ;
204 [label=<gini = 0.046<br/>samples = 110<br/>value = [306.261, 1.715, 0.0, 5.635, 0.0]<br/>class = Atropelamento>, fillcolor="#e6843e"] ;
203 -> 204 ;
205 [label=<gini = 0.12<br/>samples = 107<br/>value = [274.688, 3.087, 0.0, 6.339, 8.961]<br/>class = Atropelamento>, fillcolor="#e78946"] ;
203 -> 205 ;
206 [label=<condicao_metereologica &le; 1.621<br/>gini = 0.198<br/>samples = 232<br/>value = [593.578, 3.773, 0.0, 14.791, 53.766]<br/>class = Atropelamento>, fillcolor="#e89050"] ;
198 -> 206 ;
207 [label=<uf &le; 1.579<br/>gini = 0.226<br/>samples = 182<br/>value = [451.498, 3.773, 0.0, 11.973, 49.285]<br/>class = Atropelamento>, fillcolor="#e99355"] ;
206 -> 207 ;
208 [label=<gini = 0.104<br/>samples = 55<br/>value = [145.237, 1.715, 0.0, 2.113, 4.48]<br/>class = Atropelamento>, fillcolor="#e68844"] ;
207 -> 208 ;
209 [label=<gini = 0.272<br/>samples = 127<br/>value = [306.261, 2.058, 0.0, 9.86, 44.805]<br/>class = Atropelamento>, fillcolor="#ea975c"] ;
207 -> 209 ;
210 [label=<uf &le; 1.469<br/>gini = 0.094<br/>samples = 50<br/>value = [142.08, 0.0, 0.0, 2.817, 4.48]<br/>class = Atropelamento>, fillcolor="#e68743"] ;
206 -> 210 ;
211 [label=<gini = 0.256<br/>samples = 9<br/>value = [25.259, 0.0, 0.0, 0.0, 4.48]<br/>class = Atropelamento>, fillcolor="#ea975c"] ;
210 -> 211 ;
212 [label=<gini = 0.046<br/>samples = 41<br/>value = [116.821, 0.0, 0.0, 2.817, 0.0]<br/>class = Atropelamento>, fillcolor="#e6843e"] ;
210 -> 212 ;
213 [label=<gini = 0.447<br/>samples = 6<br/>value = [15.787, 0.0, 8.006, 0.0, 0.0]<br/>class = Atropelamento>, fillcolor="#f2c19d"] ;
197 -> 213 ;
214 [label=<uf &le; 1.459<br/>gini = 0.228<br/>samples = 445<br/>value = [1117.695, 10.633, 8.006, 22.538, 120.973]<br/>class = Atropelamento>, fillcolor="#e99355"] ;
196 -> 214 ;
215 [label=<dia_semana &le; 1.618<br/>gini = 0.019<br/>samples = 36<br/>value = [107.349, 0.343, 0.0, 0.704, 0.0]<br/>class = Atropelamento>, fillcolor="#e5823b"] ;
214 -> 215 ;
216 [label=<gini = 0.1<br/>samples = 5<br/>value = [12.629, 0.0, 0.0, 0.704, 0.0]<br/>class = Atropelamento>, fillcolor="#e68844"] ;
215 -> 216 ;
217 [label=<dia_semana &le; 1.629<br/>gini = 0.007<br/>samples = 31<br/>value = [94.72, 0.343, 0.0, 0.0, 0.0]<br/>class = Atropelamento>, fillcolor="#e5813a"] ;
215 -> 217 ;
218 [label=<gini = 0.03<br/>samples = 8<br/>value = [22.101, 0.343, 0.0, 0.0, 0.0]<br/>class = Atropelamento>, fillcolor="#e5833c"] ;
217 -> 218 ;
219 [label=<gini = 0.0<br/>samples = 23<br/>value = [72.619, 0.0, 0.0, 0.0, 0.0]<br/>class = Atropelamento>, fillcolor="#e58139"] ;
217 -> 219 ;
220 [label=<uf &le; 1.726<br/>gini = 0.245<br/>samples = 409<br/>value = [1010.346, 10.29, 8.006, 21.834, 120.973]<br/>class = Atropelamento>, fillcolor="#e99457"] ;
214 -> 220 ;
221 [label=<uf &le; 1.657<br/>gini = 0.275<br/>samples = 318<br/>value = [773.546, 8.232, 8.006, 16.199, 112.012]<br/>class = Atropelamento>, fillcolor="#ea985c"] ;
220 -> 221 ;
222 [label=<uf &le; 1.636<br/>gini = 0.225<br/>samples = 235<br/>value = [593.578, 5.145, 8.006, 12.678, 58.246]<br/>class = Atropelamento>, fillcolor="#e99254"] ;
221 -> 222 ;
223 [label=<gini = 0.26<br/>samples = 174<br/>value = [419.925, 4.802, 0.0, 9.86, 58.246]<br/>class = Atropelamento>, fillcolor="#e9965a"] ;
222 -> 223 ;
224 [label=<gini = 0.115<br/>samples = 61<br/>value = [173.653, 0.343, 8.006, 2.817, 0.0]<br/>class = Atropelamento>, fillcolor="#e78946"] ;
222 -> 224 ;
225 [label=<uf &le; 1.679<br/>gini = 0.389<br/>samples = 83<br/>value = [179.968, 3.087, 0.0, 3.522, 53.766]<br/>class = Atropelamento>, fillcolor="#edaa79"] ;
221 -> 225 ;
226 [label=<gini = 0.538<br/>samples = 18<br/>value = [25.259, 1.372, 0.0, 0.704, 22.402]<br/>class = Atropelamento>, fillcolor="#fcf2ea"] ;
225 -> 226 ;
227 [label=<gini = 0.314<br/>samples = 65<br/>value = [154.709, 1.715, 0.0, 2.817, 31.363]<br/>class = Atropelamento>, fillcolor="#eb9d66"] ;
225 -> 227 ;
228 [label=<tipo_pista &le; 1.686<br/>gini = 0.125<br/>samples = 91<br/>value = [236.8, 2.058, 0.0, 5.635, 8.961]<br/>class = Atropelamento>, fillcolor="#e78a46"] ;
220 -> 228 ;
229 [label=<condicao_metereologica &le; 1.621<br/>gini = 0.048<br/>samples = 36<br/>value = [97.877, 1.029, 0.0, 1.409, 0.0]<br/>class = Atropelamento>, fillcolor="#e6843e"] ;
228 -> 229 ;
230 [label=<gini = 0.027<br/>samples = 26<br/>value = [75.776, 0.343, 0.0, 0.704, 0.0]<br/>class = Atropelamento>, fillcolor="#e5833c"] ;
229 -> 230 ;
231 [label=<gini = 0.113<br/>samples = 10<br/>value = [22.101, 0.686, 0.0, 0.704, 0.0]<br/>class = Atropelamento>, fillcolor="#e78945"] ;
229 -> 231 ;
232 [label=<dia_semana &le; 1.729<br/>gini = 0.173<br/>samples = 55<br/>value = [138.923, 1.029, 0.0, 4.226, 8.961]<br/>class = Atropelamento>, fillcolor="#e88d4d"] ;
228 -> 232 ;
233 [label=<gini = 0.127<br/>samples = 45<br/>value = [116.821, 1.029, 0.0, 2.817, 4.48]<br/>class = Atropelamento>, fillcolor="#e78a47"] ;
232 -> 233 ;
234 [label=<gini = 0.348<br/>samples = 10<br/>value = [22.101, 0.0, 0.0, 1.409, 4.48]<br/>class = Atropelamento>, fillcolor="#eca16b"] ;
232 -> 234 ;
235 [label=<causa_acidente &le; 0.568<br/>gini = 0.118<br/>samples = 2785<br/>value = [7451.301, 41.161, 32.025, 173.965, 241.945]<br/>class = Atropelamento>, fillcolor="#e78946"] ;
195 -> 235 ;
236 [label=<uf &le; 1.53<br/>gini = 0.116<br/>samples = 2756<br/>value = [7397.627, 37.731, 32.025, 173.965, 232.984]<br/>class = Atropelamento>, fillcolor="#e78945"] ;
235 -> 236 ;
237 [label=<tipo_pista &le; 1.686<br/>gini = 0.084<br/>samples = 752<br/>value = [2099.625, 10.633, 8.006, 31.694, 44.805]<br/>class = Atropelamento>, fillcolor="#e68742"] ;
236 -> 237 ;
238 [label=<condicao_metereologica &le; 1.621<br/>gini = 0.094<br/>samples = 647<br/>value = [1787.049, 9.947, 8.006, 28.877, 44.805]<br/>class = Atropelamento>, fillcolor="#e68743"] ;
237 -> 238 ;
239 [label=<uf &le; 1.459<br/>gini = 0.104<br/>samples = 516<br/>value = [1433.428, 6.174, 8.006, 23.242, 44.805]<br/>class = Atropelamento>, fillcolor="#e68844"] ;
238 -> 239 ;
240 [label=<gini = 0.065<br/>samples = 203<br/>value = [587.264, 2.744, 0.0, 4.226, 13.441]<br/>class = Atropelamento>, fillcolor="#e68540"] ;
239 -> 240 ;
241 [label=<gini = 0.13<br/>samples = 313<br/>value = [846.165, 3.43, 8.006, 19.016, 31.363]<br/>class = Atropelamento>, fillcolor="#e78a47"] ;
239 -> 241 ;
242 [label=<condicao_metereologica &le; 1.869<br/>gini = 0.051<br/>samples = 131<br/>value = [353.621, 3.773, 0.0, 5.635, 0.0]<br/>class = Atropelamento>, fillcolor="#e6843e"] ;
238 -> 242 ;
243 [label=<gini = 0.039<br/>samples = 110<br/>value = [306.261, 2.744, 0.0, 3.522, 0.0]<br/>class = Atropelamento>, fillcolor="#e6843d"] ;
242 -> 243 ;
244 [label=<gini = 0.118<br/>samples = 21<br/>value = [47.36, 1.029, 0.0, 2.113, 0.0]<br/>class = Atropelamento>, fillcolor="#e78946"] ;
242 -> 244 ;
245 [label=<dia_semana &le; 1.634<br/>gini = 0.022<br/>samples = 105<br/>value = [312.576, 0.686, 0.0, 2.817, 0.0]<br/>class = Atropelamento>, fillcolor="#e5823b"] ;
237 -> 245 ;
246 [label=<dia_semana &le; 1.629<br/>gini = 0.045<br/>samples = 37<br/>value = [104.192, 0.343, 0.0, 2.113, 0.0]<br/>class = Atropelamento>, fillcolor="#e6843e"] ;
245 -> 246 ;
247 [label=<gini = 0.022<br/>samples = 21<br/>value = [63.147, 0.0, 0.0, 0.704, 0.0]<br/>class = Atropelamento>, fillcolor="#e5823b"] ;
246 -> 247 ;
248 [label=<gini = 0.079<br/>samples = 16<br/>value = [41.045, 0.343, 0.0, 1.409, 0.0]<br/>class = Atropelamento>, fillcolor="#e68641"] ;
246 -> 248 ;
249 [label=<condicao_metereologica &le; 1.869<br/>gini = 0.01<br/>samples = 68<br/>value = [208.384, 0.343, 0.0, 0.704, 0.0]<br/>class = Atropelamento>, fillcolor="#e5823a"] ;
245 -> 249 ;
250 [label=<gini = 0.004<br/>samples = 61<br/>value = [189.44, 0.343, 0.0, 0.0, 0.0]<br/>class = Atropelamento>, fillcolor="#e58139"] ;
249 -> 250 ;
251 [label=<gini = 0.069<br/>samples = 7<br/>value = [18.944, 0.0, 0.0, 0.704, 0.0]<br/>class = Atropelamento>, fillcolor="#e68640"] ;
249 -> 251 ;
252 [label=<uf &le; 1.636<br/>gini = 0.128<br/>samples = 2004<br/>value = [5298.002, 27.098, 24.019, 142.271, 188.179]<br/>class = Atropelamento>, fillcolor="#e78a47"] ;
236 -> 252 ;
253 [label=<dia_semana &le; 1.673<br/>gini = 0.166<br/>samples = 411<br/>value = [1095.594, 5.831, 8.006, 21.129, 71.687]<br/>class = Atropelamento>, fillcolor="#e78d4c"] ;
252 -> 253 ;
254 [label=<uf &le; 1.608<br/>gini = 0.127<br/>samples = 282<br/>value = [757.759, 5.145, 0.0, 13.382, 35.844]<br/>class = Atropelamento>, fillcolor="#e78a47"] ;
253 -> 254 ;
255 [label=<gini = 0.156<br/>samples = 193<br/>value = [505.173, 3.43, 0.0, 11.269, 31.363]<br/>class = Atropelamento>, fillcolor="#e78c4b"] ;
254 -> 255 ;
256 [label=<gini = 0.062<br/>samples = 89<br/>value = [252.586, 1.715, 0.0, 2.113, 4.48]<br/>class = Atropelamento>, fillcolor="#e6853f"] ;
254 -> 256 ;
257 [label=<uf &le; 1.624<br/>gini = 0.241<br/>samples = 129<br/>value = [337.834, 0.686, 8.006, 7.747, 35.844]<br/>class = Atropelamento>, fillcolor="#e99456"] ;
253 -> 257 ;
258 [label=<gini = 0.165<br/>samples = 87<br/>value = [236.8, 0.343, 0.0, 4.93, 17.922]<br/>class = Atropelamento>, fillcolor="#e78d4c"] ;
257 -> 258 ;
259 [label=<gini = 0.374<br/>samples = 42<br/>value = [101.035, 0.343, 8.006, 2.817, 17.922]<br/>class = Atropelamento>, fillcolor="#eca26c"] ;
257 -> 259 ;
260 [label=<tipo_pista &le; 1.686<br/>gini = 0.118<br/>samples = 1593<br/>value = [4202.408, 21.267, 16.012, 121.142, 116.492]<br/>class = Atropelamento>, fillcolor="#e78945"] ;
252 -> 260 ;
261 [label=<uf &le; 1.645<br/>gini = 0.103<br/>samples = 1237<br/>value = [3337.299, 13.377, 16.012, 86.631, 71.687]<br/>class = Atropelamento>, fillcolor="#e68844"] ;
260 -> 261 ;
262 [label=<gini = 0.089<br/>samples = 176<br/>value = [448.341, 2.058, 0.0, 19.721, 0.0]<br/>class = Atropelamento>, fillcolor="#e68743"] ;
261 -> 262 ;
263 [label=<gini = 0.105<br/>samples = 1061<br/>value = [2888.958, 11.319, 16.012, 66.91, 71.687]<br/>class = Atropelamento>, fillcolor="#e68844"] ;
261 -> 263 ;
264 [label=<dia_semana &le; 1.648<br/>gini = 0.171<br/>samples = 356<br/>value = [865.109, 7.889, 0.0, 34.511, 44.805]<br/>class = Atropelamento>, fillcolor="#e78d4c"] ;
260 -> 264 ;
265 [label=<gini = 0.216<br/>samples = 187<br/>value = [448.341, 5.145, 0.0, 14.791, 40.324]<br/>class = Atropelamento>, fillcolor="#e89152"] ;
264 -> 265 ;
266 [label=<gini = 0.116<br/>samples = 169<br/>value = [416.768, 2.744, 0.0, 19.721, 4.48]<br/>class = Atropelamento>, fillcolor="#e78946"] ;
264 -> 266 ;
267 [label=<tipo_pista &le; 1.686<br/>gini = 0.319<br/>samples = 29<br/>value = [53.675, 3.43, 0.0, 0.0, 8.961]<br/>class = Atropelamento>, fillcolor="#eb9c64"] ;
235 -> 267 ;
268 [label=<uf &le; 1.618<br/>gini = 0.469<br/>samples = 18<br/>value = [25.259, 2.744, 0.0, 0.0, 8.961]<br/>class = Atropelamento>, fillcolor="#f0b68c"] ;
267 -> 268 ;
269 [label=<gini = 0.635<br/>samples = 8<br/>value = [3.157, 2.058, 0.0, 0.0, 4.48]<br/>class = Queda de ocupante de veículo>, fillcolor="#fad7f2"] ;
268 -> 269 ;
270 [label=<dia_semana &le; 1.634<br/>gini = 0.315<br/>samples = 10<br/>value = [22.101, 0.686, 0.0, 0.0, 4.48]<br/>class = Atropelamento>, fillcolor="#eb9e66"] ;
268 -> 270 ;
271 [label=<gini = 0.462<br/>samples = 5<br/>value = [9.472, 0.343, 0.0, 0.0, 4.48]<br/>class = Atropelamento>, fillcolor="#f2bf9a"] ;
270 -> 271 ;
272 [label=<gini = 0.051<br/>samples = 5<br/>value = [12.629, 0.343, 0.0, 0.0, 0.0]<br/>class = Atropelamento>, fillcolor="#e6843e"] ;
270 -> 272 ;
273 [label=<dia_semana &le; 1.673<br/>gini = 0.046<br/>samples = 11<br/>value = [28.416, 0.686, 0.0, 0.0, 0.0]<br/>class = Atropelamento>, fillcolor="#e6843e"] ;
267 -> 273 ;
274 [label=<gini = 0.126<br/>samples = 5<br/>value = [9.472, 0.686, 0.0, 0.0, 0.0]<br/>class = Atropelamento>, fillcolor="#e78a47"] ;
273 -> 274 ;
275 [label=<gini = 0.0<br/>samples = 6<br/>value = [18.944, 0.0, 0.0, 0.0, 0.0]<br/>class = Atropelamento>, fillcolor="#e58139"] ;
273 -> 275 ;
276 [label=<fase_dia &le; 1.758<br/>gini = 0.211<br/>samples = 3682<br/>value = [8297.466, 123.141, 120.093, 414.136, 412.203]<br/>class = Atropelamento>, fillcolor="#e89051"] ;
194 -> 276 ;
277 [label=<uso_solo &le; 1.637<br/>gini = 0.311<br/>samples = 1783<br/>value = [3447.806, 92.27, 104.081, 241.58, 295.711]<br/>class = Atropelamento>, fillcolor="#ea995e"] ;
276 -> 277 ;
278 [label=<uf &le; 1.466<br/>gini = 0.262<br/>samples = 694<br/>value = [1452.372, 36.702, 16.012, 68.318, 125.453]<br/>class = Atropelamento>, fillcolor="#e99558"] ;
277 -> 278 ;
279 [label=<uf &le; 1.459<br/>gini = 0.344<br/>samples = 92<br/>value = [179.968, 4.802, 0.0, 9.86, 31.363]<br/>class = Atropelamento>, fillcolor="#eb9f68"] ;
278 -> 279 ;
280 [label=<sentido_via &le; 1.664<br/>gini = 0.103<br/>samples = 42<br/>value = [97.877, 2.058, 0.0, 3.522, 0.0]<br/>class = Atropelamento>, fillcolor="#e68844"] ;
279 -> 280 ;
281 [label=<fase_dia &le; 1.709<br/>gini = 0.172<br/>samples = 22<br/>value = [44.203, 1.029, 0.0, 3.522, 0.0]<br/>class = Atropelamento>, fillcolor="#e88e4d"] ;
280 -> 281 ;
282 [label=<gini = 0.279<br/>samples = 8<br/>value = [12.629, 0.343, 0.0, 2.113, 0.0]<br/>class = Atropelamento>, fillcolor="#ea995e"] ;
281 -> 282 ;
283 [label=<gini = 0.118<br/>samples = 14<br/>value = [31.573, 0.686, 0.0, 1.409, 0.0]<br/>class = Atropelamento>, fillcolor="#e78946"] ;
281 -> 283 ;
284 [label=<dia_semana &le; 1.618<br/>gini = 0.037<br/>samples = 20<br/>value = [53.675, 1.029, 0.0, 0.0, 0.0]<br/>class = Atropelamento>, fillcolor="#e5833d"] ;
280 -> 284 ;
285 [label=<gini = 0.0<br/>samples = 6<br/>value = [18.944, 0.0, 0.0, 0.0, 0.0]<br/>class = Atropelamento>, fillcolor="#e58139"] ;
284 -> 285 ;
286 [label=<gini = 0.056<br/>samples = 14<br/>value = [34.731, 1.029, 0.0, 0.0, 0.0]<br/>class = Atropelamento>, fillcolor="#e6853f"] ;
284 -> 286 ;
287 [label=<condicao_metereologica &le; 1.626<br/>gini = 0.483<br/>samples = 50<br/>value = [82.091, 2.744, 0.0, 6.339, 31.363]<br/>class = Atropelamento>, fillcolor="#f1b991"] ;
279 -> 287 ;
288 [label=<dia_semana &le; 1.634<br/>gini = 0.366<br/>samples = 36<br/>value = [75.776, 1.372, 0.0, 2.817, 17.922]<br/>class = Atropelamento>, fillcolor="#eca470"] ;
287 -> 288 ;
289 [label=<gini = 0.122<br/>samples = 12<br/>value = [25.259, 1.029, 0.0, 0.704, 0.0]<br/>class = Atropelamento>, fillcolor="#e78946"] ;
288 -> 289 ;
290 [label=<gini = 0.427<br/>samples = 24<br/>value = [50.517, 0.343, 0.0, 2.113, 17.922]<br/>class = Atropelamento>, fillcolor="#efb185"] ;
288 -> 290 ;
291 [label=<fase_dia &le; 1.709<br/>gini = 0.614<br/>samples = 14<br/>value = [6.315, 1.372, 0.0, 3.522, 13.441]<br/>class = Queda de ocupante de veículo>, fillcolor="#f5b2e7"] ;
287 -> 291 ;
292 [label=<gini = 0.172<br/>samples = 5<br/>value = [0.0, 0.0, 0.0, 1.409, 13.441]<br/>class = Queda de ocupante de veículo>, fillcolor="#e84ec7"] ;
291 -> 292 ;
293 [label=<gini = 0.519<br/>samples = 9<br/>value = [6.315, 1.372, 0.0, 2.113, 0.0]<br/>class = Atropelamento>, fillcolor="#f1ba93"] ;
291 -> 293 ;
294 [label=<uf &le; 1.624<br/>gini = 0.247<br/>samples = 602<br/>value = [1272.404, 31.9, 16.012, 58.458, 94.09]<br/>class = Atropelamento>, fillcolor="#e99356"] ;
278 -> 294 ;
295 [label=<tipo_pista &le; 1.556<br/>gini = 0.141<br/>samples = 158<br/>value = [369.408, 6.517, 0.0, 14.086, 8.961]<br/>class = Atropelamento>, fillcolor="#e78b48"] ;
294 -> 295 ;
296 [label=<dia_semana &le; 1.618<br/>gini = 0.056<br/>samples = 35<br/>value = [94.72, 0.686, 0.0, 2.113, 0.0]<br/>class = Atropelamento>, fillcolor="#e6853f"] ;
295 -> 296 ;
297 [label=<gini = 0.225<br/>samples = 5<br/>value = [9.472, 0.0, 0.0, 1.409, 0.0]<br/>class = Atropelamento>, fillcolor="#e99456"] ;
296 -> 297 ;
298 [label=<gini = 0.032<br/>samples = 30<br/>value = [85.248, 0.686, 0.0, 0.704, 0.0]<br/>class = Atropelamento>, fillcolor="#e5833c"] ;
296 -> 298 ;
299 [label=<uf &le; 1.473<br/>gini = 0.167<br/>samples = 123<br/>value = [274.688, 5.831, 0.0, 11.973, 8.961]<br/>class = Atropelamento>, fillcolor="#e78d4b"] ;
295 -> 299 ;
300 [label=<gini = 0.0<br/>samples = 11<br/>value = [34.731, 0.0, 0.0, 0.0, 0.0]<br/>class = Atropelamento>, fillcolor="#e58139"] ;
299 -> 300 ;
301 [label=<gini = 0.187<br/>samples = 112<br/>value = [239.957, 5.831, 0.0, 11.973, 8.961]<br/>class = Atropelamento>, fillcolor="#e88e4e"] ;
299 -> 301 ;
302 [label=<fase_dia &le; 1.709<br/>gini = 0.284<br/>samples = 444<br/>value = [902.997, 25.383, 16.012, 44.372, 85.129]<br/>class = Atropelamento>, fillcolor="#e9975b"] ;
294 -> 302 ;
303 [label=<tipo_pista &le; 1.686<br/>gini = 0.217<br/>samples = 185<br/>value = [378.88, 13.377, 8.006, 15.495, 13.441]<br/>class = Atropelamento>, fillcolor="#e89051"] ;
302 -> 303 ;
304 [label=<gini = 0.317<br/>samples = 81<br/>value = [148.395, 6.174, 8.006, 9.156, 8.961]<br/>class = Atropelamento>, fillcolor="#ea995e"] ;
303 -> 304 ;
305 [label=<gini = 0.138<br/>samples = 104<br/>value = [230.485, 7.203, 0.0, 6.339, 4.48]<br/>class = Atropelamento>, fillcolor="#e78a48"] ;
303 -> 305 ;
306 [label=<uf &le; 1.875<br/>gini = 0.324<br/>samples = 259<br/>value = [524.117, 12.005, 8.006, 28.877, 71.687]<br/>class = Atropelamento>, fillcolor="#ea9c63"] ;
302 -> 306 ;
307 [label=<gini = 0.313<br/>samples = 252<br/>value = [511.488, 11.662, 8.006, 28.877, 62.726]<br/>class = Atropelamento>, fillcolor="#ea9a60"] ;
306 -> 307 ;
308 [label=<gini = 0.501<br/>samples = 7<br/>value = [12.629, 0.343, 0.0, 0.0, 8.961]<br/>class = Atropelamento>, fillcolor="#f8dbc7"] ;
306 -> 308 ;
309 [label=<tipo_pista &le; 1.556<br/>gini = 0.343<br/>samples = 1089<br/>value = [1995.433, 55.568, 88.068, 173.261, 170.258]<br/>class = Atropelamento>, fillcolor="#ea9c63"] ;
277 -> 309 ;
310 [label=<dia_semana &le; 1.729<br/>gini = 0.581<br/>samples = 21<br/>value = [34.731, 1.372, 8.006, 1.409, 13.441]<br/>class = Atropelamento>, fillcolor="#f3c4a2"] ;
309 -> 310 ;
311 [label=<dia_semana &le; 1.634<br/>gini = 0.406<br/>samples = 16<br/>value = [31.573, 0.686, 0.0, 1.409, 8.961]<br/>class = Atropelamento>, fillcolor="#eeaa7a"] ;
310 -> 311 ;
312 [label=<gini = 0.578<br/>samples = 8<br/>value = [9.472, 0.343, 0.0, 1.409, 8.961]<br/>class = Atropelamento>, fillcolor="#fef9f6"] ;
311 -> 312 ;
313 [label=<gini = 0.03<br/>samples = 8<br/>value = [22.101, 0.343, 0.0, 0.0, 0.0]<br/>class = Atropelamento>, fillcolor="#e5833c"] ;
311 -> 313 ;
314 [label=<gini = 0.645<br/>samples = 5<br/>value = [3.157, 0.686, 8.006, 0.0, 4.48]<br/>class = Evento externo>, fillcolor="#c4f7ee"] ;
310 -> 314 ;
315 [label=<tipo_pista &le; 1.686<br/>gini = 0.335<br/>samples = 1068<br/>value = [1960.703, 54.196, 80.062, 171.853, 156.816]<br/>class = Atropelamento>, fillcolor="#ea9b62"] ;
309 -> 315 ;
316 [label=<uf &le; 1.759<br/>gini = 0.3<br/>samples = 739<br/>value = [1446.058, 29.842, 56.043, 117.62, 89.609]<br/>class = Atropelamento>, fillcolor="#ea985d"] ;
315 -> 316 ;
317 [label=<uf &le; 1.726<br/>gini = 0.336<br/>samples = 533<br/>value = [1022.975, 22.639, 56.043, 83.109, 80.648]<br/>class = Atropelamento>, fillcolor="#ea9b62"] ;
316 -> 317 ;
318 [label=<gini = 0.323<br/>samples = 525<br/>value = [1007.189, 22.639, 40.031, 82.405, 80.648]<br/>class = Atropelamento>, fillcolor="#ea9a60"] ;
317 -> 318 ;
319 [label=<gini = 0.521<br/>samples = 8<br/>value = [15.787, 0.0, 16.012, 0.704, 0.0]<br/>class = Evento externo>, fillcolor="#fcfffe"] ;
317 -> 319 ;
320 [label=<dia_semana &le; 1.618<br/>gini = 0.197<br/>samples = 206<br/>value = [423.082, 7.203, 0.0, 34.511, 8.961]<br/>class = Atropelamento>, fillcolor="#e89050"] ;
316 -> 320 ;
321 [label=<gini = 0.344<br/>samples = 29<br/>value = [47.36, 1.715, 0.0, 5.635, 4.48]<br/>class = Atropelamento>, fillcolor="#eb9d65"] ;
320 -> 321 ;
322 [label=<gini = 0.173<br/>samples = 177<br/>value = [375.722, 5.488, 0.0, 28.877, 4.48]<br/>class = Atropelamento>, fillcolor="#e88e4d"] ;
320 -> 322 ;
323 [label=<uf &le; 1.799<br/>gini = 0.416<br/>samples = 329<br/>value = [514.645, 24.354, 24.019, 54.232, 67.207]<br/>class = Atropelamento>, fillcolor="#eca46f"] ;
315 -> 323 ;
324 [label=<uf &le; 1.43<br/>gini = 0.317<br/>samples = 228<br/>value = [400.981, 19.895, 8.006, 23.947, 35.844]<br/>class = Atropelamento>, fillcolor="#ea995f"] ;
323 -> 324 ;
325 [label=<gini = 0.589<br/>samples = 6<br/>value = [6.315, 0.343, 8.006, 1.409, 0.0]<br/>class = Evento externo>, fillcolor="#ddfaf5"] ;
324 -> 325 ;
326 [label=<gini = 0.293<br/>samples = 222<br/>value = [394.666, 19.552, 0.0, 22.538, 35.844]<br/>class = Atropelamento>, fillcolor="#ea975c"] ;
324 -> 326 ;
327 [label=<sentido_via &le; 1.664<br/>gini = 0.606<br/>samples = 101<br/>value = [113.664, 4.459, 16.012, 30.285, 31.363]<br/>class = Atropelamento>, fillcolor="#f2c09c"] ;
323 -> 327 ;
328 [label=<gini = 0.722<br/>samples = 49<br/>value = [31.573, 2.401, 8.006, 18.312, 22.402]<br/>class = Atropelamento>, fillcolor="#fbece1"] ;
327 -> 328 ;
329 [label=<gini = 0.45<br/>samples = 52<br/>value = [82.091, 2.058, 8.006, 11.973, 8.961]<br/>class = Atropelamento>, fillcolor="#eda876"] ;
327 -> 329 ;
330 [label=<causa_acidente &le; 0.568<br/>gini = 0.124<br/>samples = 1899<br/>value = [4849.661, 30.871, 16.012, 172.557, 116.492]<br/>class = Atropelamento>, fillcolor="#e78946"] ;
276 -> 330 ;
331 [label=<condicao_metereologica &le; 1.756<br/>gini = 0.12<br/>samples = 1871<br/>value = [4789.671, 28.47, 8.006, 172.557, 112.012]<br/>class = Atropelamento>, fillcolor="#e78946"] ;
330 -> 331 ;
332 [label=<uf &le; 1.636<br/>gini = 0.114<br/>samples = 1730<br/>value = [4442.365, 25.04, 8.006, 161.992, 85.129]<br/>class = Atropelamento>, fillcolor="#e78945"] ;
331 -> 332 ;
333 [label=<uf &le; 1.587<br/>gini = 0.136<br/>samples = 730<br/>value = [1853.353, 13.72, 8.006, 62.684, 58.246]<br/>class = Atropelamento>, fillcolor="#e78a48"] ;
332 -> 333 ;
334 [label=<dia_semana &le; 1.673<br/>gini = 0.106<br/>samples = 505<br/>value = [1300.82, 7.546, 8.006, 47.189, 13.441]<br/>class = Atropelamento>, fillcolor="#e68844"] ;
333 -> 334 ;
335 [label=<gini = 0.089<br/>samples = 339<br/>value = [893.525, 3.43, 0.0, 30.99, 8.961]<br/>class = Atropelamento>, fillcolor="#e68742"] ;
334 -> 335 ;
336 [label=<gini = 0.142<br/>samples = 166<br/>value = [407.296, 4.116, 8.006, 16.199, 4.48]<br/>class = Atropelamento>, fillcolor="#e78b48"] ;
334 -> 336 ;
337 [label=<dia_semana &le; 1.629<br/>gini = 0.197<br/>samples = 225<br/>value = [552.533, 6.174, 0.0, 15.495, 44.805]<br/>class = Atropelamento>, fillcolor="#e89050"] ;
333 -> 337 ;
338 [label=<gini = 0.079<br/>samples = 61<br/>value = [170.496, 1.372, 0.0, 1.409, 4.48]<br/>class = Atropelamento>, fillcolor="#e68641"] ;
337 -> 338 ;
339 [label=<gini = 0.241<br/>samples = 164<br/>value = [382.037, 4.802, 0.0, 14.086, 40.324]<br/>class = Atropelamento>, fillcolor="#e99456"] ;
337 -> 339 ;
340 [label=<uf &le; 1.702<br/>gini = 0.097<br/>samples = 1000<br/>value = [2589.012, 11.319, 0.0, 99.308, 26.883]<br/>class = Atropelamento>, fillcolor="#e68843"] ;
332 -> 340 ;
341 [label=<dia_semana &le; 1.673<br/>gini = 0.074<br/>samples = 422<br/>value = [1139.797, 4.802, 0.0, 31.694, 8.961]<br/>class = Atropelamento>, fillcolor="#e68641"] ;
340 -> 341 ;
342 [label=<gini = 0.05<br/>samples = 272<br/>value = [754.602, 3.087, 0.0, 16.904, 0.0]<br/>class = Atropelamento>, fillcolor="#e6843e"] ;
341 -> 342 ;
343 [label=<gini = 0.118<br/>samples = 150<br/>value = [385.194, 1.715, 0.0, 14.791, 8.961]<br/>class = Atropelamento>, fillcolor="#e78946"] ;
341 -> 343 ;
344 [label=<condicao_metereologica &le; 1.621<br/>gini = 0.114<br/>samples = 578<br/>value = [1449.215, 6.517, 0.0, 67.614, 17.922]<br/>class = Atropelamento>, fillcolor="#e78945"] ;
340 -> 344 ;
345 [label=<gini = 0.126<br/>samples = 443<br/>value = [1082.965, 4.459, 0.0, 59.162, 13.441]<br/>class = Atropelamento>, fillcolor="#e78a47"] ;
344 -> 345 ;
346 [label=<gini = 0.076<br/>samples = 135<br/>value = [366.25, 2.058, 0.0, 8.452, 4.48]<br/>class = Atropelamento>, fillcolor="#e68641"] ;
344 -> 346 ;
347 [label=<dia_semana &le; 1.629<br/>gini = 0.194<br/>samples = 141<br/>value = [347.306, 3.43, 0.0, 10.565, 26.883]<br/>class = Atropelamento>, fillcolor="#e88f4f"] ;
331 -> 347 ;
348 [label=<uf &le; 1.636<br/>gini = 0.045<br/>samples = 32<br/>value = [88.405, 0.686, 0.0, 1.409, 0.0]<br/>class = Atropelamento>, fillcolor="#e6843e"] ;
347 -> 348 ;
349 [label=<sentido_via &le; 1.664<br/>gini = 0.1<br/>samples = 13<br/>value = [31.573, 0.343, 0.0, 1.409, 0.0]<br/>class = Atropelamento>, fillcolor="#e68844"] ;
348 -> 349 ;
350 [label=<gini = 0.069<br/>samples = 7<br/>value = [18.944, 0.0, 0.0, 0.704, 0.0]<br/>class = Atropelamento>, fillcolor="#e68640"] ;
349 -> 350 ;
351 [label=<gini = 0.144<br/>samples = 6<br/>value = [12.629, 0.343, 0.0, 0.704, 0.0]<br/>class = Atropelamento>, fillcolor="#e78b49"] ;
349 -> 351 ;
352 [label=<sentido_via &le; 1.664<br/>gini = 0.012<br/>samples = 19<br/>value = [56.832, 0.343, 0.0, 0.0, 0.0]<br/>class = Atropelamento>, fillcolor="#e5823a"] ;
348 -> 352 ;
353 [label=<gini = 0.03<br/>samples = 8<br/>value = [22.101, 0.343, 0.0, 0.0, 0.0]<br/>class = Atropelamento>, fillcolor="#e5833c"] ;
352 -> 353 ;
354 [label=<gini = 0.0<br/>samples = 11<br/>value = [34.731, 0.0, 0.0, 0.0, 0.0]<br/>class = Atropelamento>, fillcolor="#e58139"] ;
352 -> 354 ;
355 [label=<uso_solo &le; 1.637<br/>gini = 0.234<br/>samples = 109<br/>value = [258.901, 2.744, 0.0, 9.156, 26.883]<br/>class = Atropelamento>, fillcolor="#e99355"] ;
347 -> 355 ;
356 [label=<uf &le; 1.624<br/>gini = 0.069<br/>samples = 29<br/>value = [75.776, 0.686, 0.0, 2.113, 0.0]<br/>class = Atropelamento>, fillcolor="#e68640"] ;
355 -> 356 ;
357 [label=<gini = 0.013<br/>samples = 17<br/>value = [50.517, 0.343, 0.0, 0.0, 0.0]<br/>class = Atropelamento>, fillcolor="#e5823a"] ;
356 -> 357 ;
358 [label=<gini = 0.163<br/>samples = 12<br/>value = [25.259, 0.343, 0.0, 2.113, 0.0]<br/>class = Atropelamento>, fillcolor="#e78d4c"] ;
356 -> 358 ;
359 [label=<dia_semana &le; 1.634<br/>gini = 0.285<br/>samples = 80<br/>value = [183.125, 2.058, 0.0, 7.043, 26.883]<br/>class = Atropelamento>, fillcolor="#ea995e"] ;
355 -> 359 ;
360 [label=<gini = 0.487<br/>samples = 11<br/>value = [18.944, 0.686, 0.0, 0.704, 8.961]<br/>class = Atropelamento>, fillcolor="#f2c19e"] ;
359 -> 360 ;
361 [label=<gini = 0.242<br/>samples = 69<br/>value = [164.181, 1.372, 0.0, 6.339, 17.922]<br/>class = Atropelamento>, fillcolor="#e99457"] ;
359 -> 361 ;
362 [label=<uf &le; 1.652<br/>gini = 0.342<br/>samples = 28<br/>value = [59.989, 2.401, 8.006, 0.0, 4.48]<br/>class = Atropelamento>, fillcolor="#eb9d65"] ;
330 -> 362 ;
363 [label=<tipo_pista &le; 1.686<br/>gini = 0.019<br/>samples = 12<br/>value = [34.731, 0.343, 0.0, 0.0, 0.0]<br/>class = Atropelamento>, fillcolor="#e5823b"] ;
362 -> 363 ;
364 [label=<gini = 0.0<br/>samples = 7<br/>value = [22.101, 0.0, 0.0, 0.0, 0.0]<br/>class = Atropelamento>, fillcolor="#e58139"] ;
363 -> 364 ;
365 [label=<gini = 0.051<br/>samples = 5<br/>value = [12.629, 0.343, 0.0, 0.0, 0.0]<br/>class = Atropelamento>, fillcolor="#e6843e"] ;
363 -> 365 ;
366 [label=<tipo_pista &le; 1.686<br/>gini = 0.541<br/>samples = 16<br/>value = [25.259, 2.058, 8.006, 0.0, 4.48]<br/>class = Atropelamento>, fillcolor="#f1bb94"] ;
362 -> 366 ;
367 [label=<gini = 0.684<br/>samples = 10<br/>value = [9.472, 1.715, 8.006, 0.0, 4.48]<br/>class = Atropelamento>, fillcolor="#fdf3ec"] ;
366 -> 367 ;
368 [label=<gini = 0.042<br/>samples = 6<br/>value = [15.787, 0.343, 0.0, 0.0, 0.0]<br/>class = Atropelamento>, fillcolor="#e6843d"] ;
366 -> 368 ;
369 [label=<causa_acidente &le; 1.011<br/>gini = 0.624<br/>samples = 1817<br/>value = [776.703, 497.366, 48.037, 57.754, 147.855]<br/>class = Atropelamento>, fillcolor="#f8ddc9"] ;
1 -> 369 ;
370 [label=<tipo_pista &le; 1.556<br/>gini = 0.252<br/>samples = 750<br/>value = [31.573, 252.456, 0.0, 1.409, 8.961]<br/>class = Colisão>, fillcolor="#90e959"] ;
369 -> 370 ;
371 [label=<condicao_metereologica &le; 1.621<br/>gini = 0.38<br/>samples = 195<br/>value = [22.101, 64.486, 0.0, 0.0, 0.0]<br/>class = Colisão>, fillcolor="#a8ee7d"] ;
370 -> 371 ;
372 [label=<fase_dia &le; 1.709<br/>gini = 0.281<br/>samples = 139<br/>value = [9.472, 46.649, 0.0, 0.0, 0.0]<br/>class = Colisão>, fillcolor="#96ea61"] ;
371 -> 372 ;
373 [label=<dia_semana &le; 1.673<br/>gini = 0.382<br/>samples = 83<br/>value = [9.472, 27.441, 0.0, 0.0, 0.0]<br/>class = Colisão>, fillcolor="#a9ee7d"] ;
372 -> 373 ;
374 [label=<dia_semana &le; 1.629<br/>gini = 0.259<br/>samples = 52<br/>value = [3.157, 17.494, 0.0, 0.0, 0.0]<br/>class = Colisão>, fillcolor="#93ea5d"] ;
373 -> 374 ;
375 [label=<fase_dia &le; 1.608<br/>gini = 0.424<br/>samples = 22<br/>value = [3.157, 7.203, 0.0, 0.0, 0.0]<br/>class = Colisão>, fillcolor="#b5f090"] ;
374 -> 375 ;
376 [label=<sentido_via &le; 1.664<br/>gini = 0.0<br/>samples = 16<br/>value = [0.0, 5.488, 0.0, 0.0, 0.0]<br/>class = Colisão>, fillcolor="#7be539"] ;
375 -> 376 ;
377 [label=<gini = 0.0<br/>samples = 8<br/>value = [0.0, 2.744, 0.0, 0.0, 0.0]<br/>class = Colisão>, fillcolor="#7be539"] ;
376 -> 377 ;
378 [label=<gini = 0.0<br/>samples = 8<br/>value = [0.0, 2.744, 0.0, 0.0, 0.0]<br/>class = Colisão>, fillcolor="#7be539"] ;
376 -> 378 ;
379 [label=<gini = 0.456<br/>samples = 6<br/>value = [3.157, 1.715, 0.0, 0.0, 0.0]<br/>class = Atropelamento>, fillcolor="#f3c5a5"] ;
375 -> 379 ;
380 [label=<sentido_via &le; 1.664<br/>gini = 0.0<br/>samples = 30<br/>value = [0.0, 10.29, 0.0, 0.0, 0.0]<br/>class = Colisão>, fillcolor="#7be539"] ;
374 -> 380 ;
381 [label=<gini = 0.0<br/>samples = 18<br/>value = [0.0, 6.174, 0.0, 0.0, 0.0]<br/>class = Colisão>, fillcolor="#7be539"] ;
380 -> 381 ;
382 [label=<gini = 0.0<br/>samples = 12<br/>value = [0.0, 4.116, 0.0, 0.0, 0.0]<br/>class = Colisão>, fillcolor="#7be539"] ;
380 -> 382 ;
383 [label=<dia_semana &le; 1.729<br/>gini = 0.475<br/>samples = 31<br/>value = [6.315, 9.947, 0.0, 0.0, 0.0]<br/>class = Colisão>, fillcolor="#cff6b7"] ;
373 -> 383 ;
384 [label=<sentido_via &le; 1.664<br/>gini = 0.485<br/>samples = 15<br/>value = [6.315, 4.459, 0.0, 0.0, 0.0]<br/>class = Atropelamento>, fillcolor="#f7dac5"] ;
383 -> 384 ;
385 [label=<gini = 0.456<br/>samples = 6<br/>value = [3.157, 1.715, 0.0, 0.0, 0.0]<br/>class = Atropelamento>, fillcolor="#f3c5a5"] ;
384 -> 385 ;
386 [label=<gini = 0.498<br/>samples = 9<br/>value = [3.157, 2.744, 0.0, 0.0, 0.0]<br/>class = Atropelamento>, fillcolor="#fcefe5"] ;
384 -> 386 ;
387 [label=<fase_dia &le; 1.608<br/>gini = 0.0<br/>samples = 16<br/>value = [0.0, 5.488, 0.0, 0.0, 0.0]<br/>class = Colisão>, fillcolor="#7be539"] ;
383 -> 387 ;
388 [label=<gini = 0.0<br/>samples = 11<br/>value = [0.0, 3.773, 0.0, 0.0, 0.0]<br/>class = Colisão>, fillcolor="#7be539"] ;
387 -> 388 ;
389 [label=<gini = 0.0<br/>samples = 5<br/>value = [0.0, 1.715, 0.0, 0.0, 0.0]<br/>class = Colisão>, fillcolor="#7be539"] ;
387 -> 389 ;
390 [label=<gini = 0.0<br/>samples = 56<br/>value = [0.0, 19.209, 0.0, 0.0, 0.0]<br/>class = Colisão>, fillcolor="#7be539"] ;
372 -> 390 ;
391 [label=<uf &le; 1.587<br/>gini = 0.485<br/>samples = 56<br/>value = [12.629, 17.837, 0.0, 0.0, 0.0]<br/>class = Colisão>, fillcolor="#d8f7c5"] ;
371 -> 391 ;
392 [label=<gini = 0.0<br/>samples = 18<br/>value = [0.0, 6.174, 0.0, 0.0, 0.0]<br/>class = Colisão>, fillcolor="#7be539"] ;
391 -> 392 ;
393 [label=<sentido_via &le; 1.664<br/>gini = 0.499<br/>samples = 38<br/>value = [12.629, 11.662, 0.0, 0.0, 0.0]<br/>class = Atropelamento>, fillcolor="#fdf5f0"] ;
391 -> 393 ;
394 [label=<condicao_metereologica &le; 1.708<br/>gini = 0.465<br/>samples = 19<br/>value = [9.472, 5.488, 0.0, 0.0, 0.0]<br/>class = Atropelamento>, fillcolor="#f4caac"] ;
393 -> 394 ;
395 [label=<fase_dia &le; 1.608<br/>gini = 0.407<br/>samples = 14<br/>value = [9.472, 3.773, 0.0, 0.0, 0.0]<br/>class = Atropelamento>, fillcolor="#efb388"] ;
394 -> 395 ;
396 [label=<gini = 0.241<br/>samples = 5<br/>value = [6.315, 1.029, 0.0, 0.0, 0.0]<br/>class = Atropelamento>, fillcolor="#e99659"] ;
395 -> 396 ;
397 [label=<gini = 0.498<br/>samples = 9<br/>value = [3.157, 2.744, 0.0, 0.0, 0.0]<br/>class = Atropelamento>, fillcolor="#fcefe5"] ;
395 -> 397 ;
398 [label=<gini = 0.0<br/>samples = 5<br/>value = [0.0, 1.715, 0.0, 0.0, 0.0]<br/>class = Colisão>, fillcolor="#7be539"] ;
394 -> 398 ;
399 [label=<condicao_metereologica &le; 1.708<br/>gini = 0.448<br/>samples = 19<br/>value = [3.157, 6.174, 0.0, 0.0, 0.0]<br/>class = Colisão>, fillcolor="#bff29e"] ;
393 -> 399 ;
400 [label=<dia_semana &le; 1.643<br/>gini = 0.0<br/>samples = 14<br/>value = [0.0, 4.802, 0.0, 0.0, 0.0]<br/>class = Colisão>, fillcolor="#7be539"] ;
399 -> 400 ;
401 [label=<gini = 0.0<br/>samples = 7<br/>value = [0.0, 2.401, 0.0, 0.0, 0.0]<br/>class = Colisão>, fillcolor="#7be539"] ;
400 -> 401 ;
402 [label=<gini = 0.0<br/>samples = 7<br/>value = [0.0, 2.401, 0.0, 0.0, 0.0]<br/>class = Colisão>, fillcolor="#7be539"] ;
400 -> 402 ;
403 [label=<gini = 0.422<br/>samples = 5<br/>value = [3.157, 1.372, 0.0, 0.0, 0.0]<br/>class = Atropelamento>, fillcolor="#f0b88f"] ;
399 -> 403 ;
404 [label=<uf &le; 1.862<br/>gini = 0.178<br/>samples = 555<br/>value = [9.472, 187.97, 0.0, 1.409, 8.961]<br/>class = Colisão>, fillcolor="#88e84d"] ;
370 -> 404 ;
405 [label=<uf &le; 1.466<br/>gini = 0.148<br/>samples = 532<br/>value = [9.472, 180.424, 0.0, 1.409, 4.48]<br/>class = Colisão>, fillcolor="#86e749"] ;
404 -> 405 ;
406 [label=<fase_dia &le; 1.608<br/>gini = 0.324<br/>samples = 74<br/>value = [6.315, 24.697, 0.0, 0.0, 0.0]<br/>class = Colisão>, fillcolor="#9dec6c"] ;
405 -> 406 ;
407 [label=<dia_semana &le; 1.634<br/>gini = 0.499<br/>samples = 19<br/>value = [6.315, 5.831, 0.0, 0.0, 0.0]<br/>class = Atropelamento>, fillcolor="#fdf5f0"] ;
406 -> 407 ;
408 [label=<gini = 0.399<br/>samples = 9<br/>value = [6.315, 2.401, 0.0, 0.0, 0.0]<br/>class = Atropelamento>, fillcolor="#efb184"] ;
407 -> 408 ;
409 [label=<gini = -0.0<br/>samples = 10<br/>value = [0.0, 3.43, 0.0, 0.0, 0.0]<br/>class = Colisão>, fillcolor="#7be539"] ;
407 -> 409 ;
410 [label=<fase_dia &le; 1.709<br/>gini = 0.0<br/>samples = 55<br/>value = [0.0, 18.866, 0.0, 0.0, 0.0]<br/>class = Colisão>, fillcolor="#7be539"] ;
406 -> 410 ;
411 [label=<gini = 0.0<br/>samples = 18<br/>value = [0.0, 6.174, 0.0, 0.0, 0.0]<br/>class = Colisão>, fillcolor="#7be539"] ;
410 -> 411 ;
412 [label=<gini = 0.0<br/>samples = 37<br/>value = [0.0, 12.691, 0.0, 0.0, 0.0]<br/>class = Colisão>, fillcolor="#7be539"] ;
410 -> 412 ;
413 [label=<uf &le; 1.698<br/>gini = 0.106<br/>samples = 458<br/>value = [3.157, 155.727, 0.0, 1.409, 4.48]<br/>class = Colisão>, fillcolor="#82e644"] ;
405 -> 413 ;
414 [label=<sentido_via &le; 1.664<br/>gini = 0.024<br/>samples = 334<br/>value = [0.0, 113.88, 0.0, 1.409, 0.0]<br/>class = Colisão>, fillcolor="#7de53b"] ;
413 -> 414 ;
415 [label=<uf &le; 1.636<br/>gini = 0.041<br/>samples = 192<br/>value = [0.0, 65.172, 0.0, 1.409, 0.0]<br/>class = Colisão>, fillcolor="#7ee63d"] ;
414 -> 415 ;
416 [label=<dia_semana &le; 1.618<br/>gini = 0.025<br/>samples = 160<br/>value = [0.0, 54.539, 0.0, 0.704, 0.0]<br/>class = Colisão>, fillcolor="#7de53c"] ;
415 -> 416 ;
417 [label=<gini = 0.127<br/>samples = 29<br/>value = [0.0, 9.604, 0.0, 0.704, 0.0]<br/>class = Colisão>, fillcolor="#85e748"] ;
416 -> 417 ;
418 [label=<gini = 0.0<br/>samples = 131<br/>value = [0.0, 44.934, 0.0, 0.0, 0.0]<br/>class = Colisão>, fillcolor="#7be539"] ;
416 -> 418 ;
419 [label=<dia_semana &le; 1.673<br/>gini = 0.117<br/>samples = 32<br/>value = [0.0, 10.633, 0.0, 0.704, 0.0]<br/>class = Colisão>, fillcolor="#84e746"] ;
415 -> 419 ;
420 [label=<gini = 0.0<br/>samples = 22<br/>value = [0.0, 7.546, 0.0, 0.0, 0.0]<br/>class = Colisão>, fillcolor="#7be539"] ;
419 -> 420 ;
421 [label=<gini = 0.303<br/>samples = 10<br/>value = [0.0, 3.087, 0.0, 0.704, 0.0]<br/>class = Colisão>, fillcolor="#99eb66"] ;
419 -> 421 ;
422 [label=<gini = 0.0<br/>samples = 142<br/>value = [0.0, 48.708, 0.0, 0.0, 0.0]<br/>class = Colisão>, fillcolor="#7be539"] ;
414 -> 422 ;
423 [label=<dia_semana &le; 1.729<br/>gini = 0.273<br/>samples = 124<br/>value = [3.157, 41.847, 0.0, 0.0, 4.48]<br/>class = Colisão>, fillcolor="#91e95b"] ;
413 -> 423 ;
424 [label=<tipo_pista &le; 1.686<br/>gini = 0.145<br/>samples = 109<br/>value = [3.157, 37.045, 0.0, 0.0, 0.0]<br/>class = Colisão>, fillcolor="#86e74a"] ;
423 -> 424 ;
425 [label=<dia_semana &le; 1.648<br/>gini = 0.324<br/>samples = 37<br/>value = [3.157, 12.348, 0.0, 0.0, 0.0]<br/>class = Colisão>, fillcolor="#9dec6c"] ;
424 -> 425 ;
426 [label=<gini = 0.0<br/>samples = 24<br/>value = [0.0, 8.232, 0.0, 0.0, 0.0]<br/>class = Colisão>, fillcolor="#7be539"] ;
425 -> 426 ;
427 [label=<gini = 0.491<br/>samples = 13<br/>value = [3.157, 4.116, 0.0, 0.0, 0.0]<br/>class = Colisão>, fillcolor="#e0f9d1"] ;
425 -> 427 ;
428 [label=<gini = 0.0<br/>samples = 72<br/>value = [0.0, 24.697, 0.0, 0.0, 0.0]<br/>class = Colisão>, fillcolor="#7be539"] ;
424 -> 428 ;
429 [label=<condicao_metereologica &le; 1.621<br/>gini = 0.499<br/>samples = 15<br/>value = [0.0, 4.802, 0.0, 0.0, 4.48]<br/>class = Colisão>, fillcolor="#f6fdf2"] ;
423 -> 429 ;
430 [label=<gini = 0.471<br/>samples = 9<br/>value = [0.0, 2.744, 0.0, 0.0, 4.48]<br/>class = Queda de ocupante de veículo>, fillcolor="#f5b2e7"] ;
429 -> 430 ;
431 [label=<gini = 0.0<br/>samples = 6<br/>value = [0.0, 2.058, 0.0, 0.0, 0.0]<br/>class = Colisão>, fillcolor="#7be539"] ;
429 -> 431 ;
432 [label=<condicao_metereologica &le; 1.626<br/>gini = 0.468<br/>samples = 23<br/>value = [0.0, 7.546, 0.0, 0.0, 4.48]<br/>class = Colisão>, fillcolor="#c9f4af"] ;
404 -> 432 ;
433 [label=<gini = 0.0<br/>samples = 18<br/>value = [0.0, 6.174, 0.0, 0.0, 0.0]<br/>class = Colisão>, fillcolor="#7be539"] ;
432 -> 433 ;
434 [label=<gini = 0.359<br/>samples = 5<br/>value = [0.0, 1.372, 0.0, 0.0, 4.48]<br/>class = Queda de ocupante de veículo>, fillcolor="#ed76d3"] ;
432 -> 434 ;
435 [label=<fase_dia &le; 1.608<br/>gini = 0.579<br/>samples = 1067<br/>value = [745.13, 244.91, 48.037, 56.345, 138.894]<br/>class = Atropelamento>, fillcolor="#f2bf9b"] ;
369 -> 435 ;
436 [label=<uf &le; 1.579<br/>gini = 0.451<br/>samples = 349<br/>value = [340.992, 71.003, 8.006, 17.608, 35.844]<br/>class = Atropelamento>, fillcolor="#eeaa7a"] ;
435 -> 436 ;
437 [label=<condicao_metereologica &le; 1.621<br/>gini = 0.607<br/>samples = 79<br/>value = [44.203, 18.18, 0.0, 7.043, 8.961]<br/>class = Atropelamento>, fillcolor="#f4c9a9"] ;
436 -> 437 ;
438 [label=<uf &le; 1.473<br/>gini = 0.507<br/>samples = 54<br/>value = [41.045, 11.662, 0.0, 4.226, 4.48]<br/>class = Atropelamento>, fillcolor="#f0b58a"] ;
437 -> 438 ;
439 [label=<uf &le; 1.459<br/>gini = 0.341<br/>samples = 25<br/>value = [25.259, 5.145, 0.0, 1.409, 0.0]<br/>class = Atropelamento>, fillcolor="#eba06a"] ;
438 -> 439 ;
440 [label=<dia_semana &le; 1.634<br/>gini = 0.48<br/>samples = 10<br/>value = [6.315, 2.401, 0.0, 0.704, 0.0]<br/>class = Atropelamento>, fillcolor="#f1b991"] ;
439 -> 440 ;
441 [label=<gini = 0.241<br/>samples = 5<br/>value = [6.315, 1.029, 0.0, 0.0, 0.0]<br/>class = Atropelamento>, fillcolor="#e99659"] ;
440 -> 441 ;
442 [label=<gini = 0.448<br/>samples = 5<br/>value = [0.0, 1.372, 0.0, 0.704, 0.0]<br/>class = Colisão>, fillcolor="#bff29f"] ;
440 -> 442 ;
443 [label=<dia_semana &le; 1.634<br/>gini = 0.268<br/>samples = 15<br/>value = [18.944, 2.744, 0.0, 0.704, 0.0]<br/>class = Atropelamento>, fillcolor="#ea975c"] ;
439 -> 443 ;
444 [label=<gini = 0.569<br/>samples = 7<br/>value = [3.157, 1.715, 0.0, 0.704, 0.0]<br/>class = Atropelamento>, fillcolor="#f5d0b5"] ;
443 -> 444 ;
445 [label=<gini = 0.115<br/>samples = 8<br/>value = [15.787, 1.029, 0.0, 0.0, 0.0]<br/>class = Atropelamento>, fillcolor="#e78946"] ;
443 -> 445 ;
446 [label=<uf &le; 1.521<br/>gini = 0.635<br/>samples = 29<br/>value = [15.787, 6.517, 0.0, 2.817, 4.48]<br/>class = Atropelamento>, fillcolor="#f5ccaf"] ;
438 -> 446 ;
447 [label=<sentido_via &le; 1.664<br/>gini = 0.608<br/>samples = 12<br/>value = [0.0, 3.087, 0.0, 1.409, 4.48]<br/>class = Queda de ocupante de veículo>, fillcolor="#f9d0f0"] ;
446 -> 447 ;
448 [label=<gini = 0.0<br/>samples = 6<br/>value = [0.0, 2.058, 0.0, 0.0, 0.0]<br/>class = Colisão>, fillcolor="#7be539"] ;
447 -> 448 ;
449 [label=<gini = 0.517<br/>samples = 6<br/>value = [0.0, 1.029, 0.0, 1.409, 4.48]<br/>class = Queda de ocupante de veículo>, fillcolor="#f191dc"] ;
447 -> 449 ;
450 [label=<sentido_via &le; 1.664<br/>gini = 0.382<br/>samples = 17<br/>value = [15.787, 3.43, 0.0, 1.409, 0.0]<br/>class = Atropelamento>, fillcolor="#eca471"] ;
446 -> 450 ;
451 [label=<dia_semana &le; 1.634<br/>gini = 0.635<br/>samples = 11<br/>value = [3.157, 2.744, 0.0, 1.409, 0.0]<br/>class = Atropelamento>, fillcolor="#fdf4ed"] ;
450 -> 451 ;
452 [label=<gini = 0.0<br/>samples = 5<br/>value = [0.0, 1.715, 0.0, 0.0, 0.0]<br/>class = Colisão>, fillcolor="#7be539"] ;
451 -> 452 ;
453 [label=<gini = 0.584<br/>samples = 6<br/>value = [3.157, 1.029, 0.0, 1.409, 0.0]<br/>class = Atropelamento>, fillcolor="#f4caac"] ;
451 -> 453 ;
454 [label=<gini = 0.098<br/>samples = 6<br/>value = [12.629, 0.686, 0.0, 0.0, 0.0]<br/>class = Atropelamento>, fillcolor="#e68844"] ;
450 -> 454 ;
455 [label=<sentido_via &le; 1.664<br/>gini = 0.721<br/>samples = 25<br/>value = [3.157, 6.517, 0.0, 2.817, 4.48]<br/>class = Colisão>, fillcolor="#e9fbdf"] ;
437 -> 455 ;
456 [label=<dia_semana &le; 1.648<br/>gini = 0.739<br/>samples = 14<br/>value = [3.157, 2.744, 0.0, 2.817, 4.48]<br/>class = Queda de ocupante de veículo>, fillcolor="#fce5f7"] ;
455 -> 456 ;
457 [label=<gini = 0.584<br/>samples = 8<br/>value = [0.0, 1.372, 0.0, 2.113, 4.48]<br/>class = Queda de ocupante de veículo>, fillcolor="#f4afe6"] ;
456 -> 457 ;
458 [label=<gini = 0.549<br/>samples = 6<br/>value = [3.157, 1.372, 0.0, 0.704, 0.0]<br/>class = Atropelamento>, fillcolor="#f3c5a3"] ;
456 -> 458 ;
459 [label=<uso_solo &le; 1.637<br/>gini = 0.0<br/>samples = 11<br/>value = [0.0, 3.773, 0.0, 0.0, 0.0]<br/>class = Colisão>, fillcolor="#7be539"] ;
455 -> 459 ;
460 [label=<gini = 0.0<br/>samples = 6<br/>value = [0.0, 2.058, 0.0, 0.0, 0.0]<br/>class = Colisão>, fillcolor="#7be539"] ;
459 -> 460 ;
461 [label=<gini = 0.0<br/>samples = 5<br/>value = [0.0, 1.715, 0.0, 0.0, 0.0]<br/>class = Colisão>, fillcolor="#7be539"] ;
459 -> 461 ;
462 [label=<uf &le; 1.875<br/>gini = 0.412<br/>samples = 270<br/>value = [296.789, 52.824, 8.006, 10.565, 26.883]<br/>class = Atropelamento>, fillcolor="#eca572"] ;
436 -> 462 ;
463 [label=<uf &le; 1.702<br/>gini = 0.403<br/>samples = 264<br/>value = [290.474, 51.795, 8.006, 10.565, 22.402]<br/>class = Atropelamento>, fillcolor="#eca470"] ;
462 -> 463 ;
464 [label=<tipo_pista &le; 1.686<br/>gini = 0.342<br/>samples = 144<br/>value = [176.811, 27.441, 0.0, 3.522, 13.441]<br/>class = Atropelamento>, fillcolor="#eb9e66"] ;
463 -> 464 ;
465 [label=<dia_semana &le; 1.729<br/>gini = 0.332<br/>samples = 86<br/>value = [82.091, 19.895, 0.0, 1.409, 0.0]<br/>class = Atropelamento>, fillcolor="#eca16c"] ;
464 -> 465 ;
466 [label=<uf &le; 1.597<br/>gini = 0.375<br/>samples = 71<br/>value = [56.832, 17.837, 0.0, 0.704, 0.0]<br/>class = Atropelamento>, fillcolor="#edaa79"] ;
465 -> 466 ;
467 [label=<gini = 0.0<br/>samples = 6<br/>value = [0.0, 2.058, 0.0, 0.0, 0.0]<br/>class = Colisão>, fillcolor="#7be539"] ;
466 -> 467 ;
468 [label=<gini = 0.353<br/>samples = 65<br/>value = [56.832, 15.778, 0.0, 0.704, 0.0]<br/>class = Atropelamento>, fillcolor="#eca572"] ;
466 -> 468 ;
469 [label=<sentido_via &le; 1.664<br/>gini = 0.181<br/>samples = 15<br/>value = [25.259, 2.058, 0.0, 0.704, 0.0]<br/>class = Atropelamento>, fillcolor="#e88e4e"] ;
465 -> 469 ;
470 [label=<gini = 0.36<br/>samples = 6<br/>value = [6.315, 1.029, 0.0, 0.704, 0.0]<br/>class = Atropelamento>, fillcolor="#eba06a"] ;
469 -> 470 ;
471 [label=<gini = 0.098<br/>samples = 9<br/>value = [18.944, 1.029, 0.0, 0.0, 0.0]<br/>class = Atropelamento>, fillcolor="#e68844"] ;
469 -> 471 ;
472 [label=<dia_semana &le; 1.629<br/>gini = 0.336<br/>samples = 58<br/>value = [94.72, 7.546, 0.0, 2.113, 13.441]<br/>class = Atropelamento>, fillcolor="#eb9d65"] ;
464 -> 472 ;
473 [label=<uf &le; 1.657<br/>gini = 0.531<br/>samples = 20<br/>value = [22.101, 3.43, 0.0, 0.704, 8.961]<br/>class = Atropelamento>, fillcolor="#f2c09c"] ;
472 -> 473 ;
474 [label=<gini = 0.597<br/>samples = 14<br/>value = [12.629, 2.401, 0.0, 0.704, 8.961]<br/>class = Atropelamento>, fillcolor="#f9e2d1"] ;
473 -> 474 ;
475 [label=<gini = 0.177<br/>samples = 6<br/>value = [9.472, 1.029, 0.0, 0.0, 0.0]<br/>class = Atropelamento>, fillcolor="#e88f4f"] ;
473 -> 475 ;
476 [label=<dia_semana &le; 1.729<br/>gini = 0.222<br/>samples = 38<br/>value = [72.619, 4.116, 0.0, 1.409, 4.48]<br/>class = Atropelamento>, fillcolor="#e89152"] ;
472 -> 476 ;
477 [label=<gini = 0.132<br/>samples = 30<br/>value = [59.989, 3.087, 0.0, 1.409, 0.0]<br/>class = Atropelamento>, fillcolor="#e78a47"] ;
476 -> 477 ;
478 [label=<gini = 0.451<br/>samples = 8<br/>value = [12.629, 1.029, 0.0, 0.0, 4.48]<br/>class = Atropelamento>, fillcolor="#efb489"] ;
476 -> 478 ;
479 [label=<uf &le; 1.827<br/>gini = 0.478<br/>samples = 120<br/>value = [113.664, 24.354, 8.006, 7.043, 8.961]<br/>class = Atropelamento>, fillcolor="#eead7f"] ;
463 -> 479 ;
480 [label=<dia_semana &le; 1.648<br/>gini = 0.549<br/>samples = 51<br/>value = [37.888, 11.662, 0.0, 2.113, 8.961]<br/>class = Atropelamento>, fillcolor="#f1bc95"] ;
479 -> 480 ;
481 [label=<uf &le; 1.799<br/>gini = 0.397<br/>samples = 31<br/>value = [25.259, 7.203, 0.0, 1.409, 0.0]<br/>class = Atropelamento>, fillcolor="#edaa79"] ;
480 -> 481 ;
482 [label=<gini = 0.478<br/>samples = 26<br/>value = [15.787, 6.517, 0.0, 1.409, 0.0]<br/>class = Atropelamento>, fillcolor="#f1bb94"] ;
481 -> 482 ;
483 [label=<gini = 0.126<br/>samples = 5<br/>value = [9.472, 0.686, 0.0, 0.0, 0.0]<br/>class = Atropelamento>, fillcolor="#e78a47"] ;
481 -> 483 ;
484 [label=<uf &le; 1.726<br/>gini = 0.637<br/>samples = 20<br/>value = [12.629, 4.459, 0.0, 0.704, 8.961]<br/>class = Atropelamento>, fillcolor="#fae5d6"] ;
480 -> 484 ;
485 [label=<gini = 0.0<br/>samples = 9<br/>value = [0.0, 3.087, 0.0, 0.0, 0.0]<br/>class = Colisão>, fillcolor="#7be539"] ;
484 -> 485 ;
486 [label=<gini = 0.568<br/>samples = 11<br/>value = [12.629, 1.372, 0.0, 0.704, 8.961]<br/>class = Atropelamento>, fillcolor="#f9e0ce"] ;
484 -> 486 ;
487 [label=<sentido_via &le; 1.664<br/>gini = 0.417<br/>samples = 69<br/>value = [75.776, 12.691, 8.006, 4.93, 0.0]<br/>class = Atropelamento>, fillcolor="#eda572"] ;
479 -> 487 ;
488 [label=<uso_solo &le; 1.637<br/>gini = 0.27<br/>samples = 37<br/>value = [47.36, 6.517, 0.0, 2.113, 0.0]<br/>class = Atropelamento>, fillcolor="#ea975c"] ;
487 -> 488 ;
489 [label=<gini = 0.142<br/>samples = 20<br/>value = [37.888, 2.401, 0.0, 0.704, 0.0]<br/>class = Atropelamento>, fillcolor="#e78b49"] ;
488 -> 489 ;
490 [label=<gini = 0.517<br/>samples = 17<br/>value = [9.472, 4.116, 0.0, 1.409, 0.0]<br/>class = Atropelamento>, fillcolor="#f2c19e"] ;
488 -> 490 ;
491 [label=<uso_solo &le; 1.637<br/>gini = 0.555<br/>samples = 32<br/>value = [28.416, 6.174, 8.006, 2.817, 0.0]<br/>class = Atropelamento>, fillcolor="#f1ba93"] ;
487 -> 491 ;
492 [label=<gini = 0.652<br/>samples = 13<br/>value = [6.315, 3.087, 8.006, 0.704, 0.0]<br/>class = Evento externo>, fillcolor="#e3fbf7"] ;
491 -> 492 ;
493 [label=<gini = 0.326<br/>samples = 19<br/>value = [22.101, 3.087, 0.0, 2.113, 0.0]<br/>class = Atropelamento>, fillcolor="#eb9c64"] ;
491 -> 493 ;
494 [label=<gini = 0.564<br/>samples = 6<br/>value = [6.315, 1.029, 0.0, 0.0, 4.48]<br/>class = Atropelamento>, fillcolor="#f9e0ce"] ;
462 -> 494 ;
495 [label=<fase_dia &le; 1.758<br/>gini = 0.641<br/>samples = 718<br/>value = [404.138, 173.906, 40.031, 38.737, 103.051]<br/>class = Atropelamento>, fillcolor="#f5cdb1"] ;
435 -> 495 ;
496 [label=<uf &le; 1.459<br/>gini = 0.649<br/>samples = 642<br/>value = [312.576, 163.616, 24.019, 30.99, 85.129]<br/>class = Atropelamento>, fillcolor="#f6d6be"] ;
495 -> 496 ;
497 [label=<uso_solo &le; 1.637<br/>gini = 0.38<br/>samples = 38<br/>value = [3.157, 12.348, 0.0, 0.704, 0.0]<br/>class = Colisão>, fillcolor="#a2ed74"] ;
496 -> 497 ;
498 [label=<gini = 0.0<br/>samples = 25<br/>value = [0.0, 8.575, 0.0, 0.0, 0.0]<br/>class = Colisão>, fillcolor="#7be539"] ;
497 -> 498 ;
499 [label=<fase_dia &le; 1.709<br/>gini = 0.576<br/>samples = 13<br/>value = [3.157, 3.773, 0.0, 0.704, 0.0]<br/>class = Colisão>, fillcolor="#edfbe4"] ;
497 -> 499 ;
500 [label=<gini = 0.549<br/>samples = 6<br/>value = [3.157, 1.372, 0.0, 0.704, 0.0]<br/>class = Atropelamento>, fillcolor="#f3c5a3"] ;
499 -> 500 ;
501 [label=<gini = 0.0<br/>samples = 7<br/>value = [0.0, 2.401, 0.0, 0.0, 0.0]<br/>class = Colisão>, fillcolor="#7be539"] ;
499 -> 501 ;
502 [label=<uf &le; 1.466<br/>gini = 0.646<br/>samples = 604<br/>value = [309.418, 151.268, 24.019, 30.285, 85.129]<br/>class = Atropelamento>, fillcolor="#f6d3b9"] ;
496 -> 502 ;
503 [label=<dia_semana &le; 1.729<br/>gini = 0.377<br/>samples = 55<br/>value = [47.36, 12.691, 0.0, 2.113, 0.0]<br/>class = Atropelamento>, fillcolor="#eda774"] ;
502 -> 503 ;
504 [label=<sentido_via &le; 1.664<br/>gini = 0.337<br/>samples = 49<br/>value = [47.36, 10.976, 0.0, 1.409, 0.0]<br/>class = Atropelamento>, fillcolor="#eca16b"] ;
503 -> 504 ;
505 [label=<dia_semana &le; 1.629<br/>gini = 0.422<br/>samples = 27<br/>value = [18.944, 6.86, 0.0, 0.704, 0.0]<br/>class = Atropelamento>, fillcolor="#efb285"] ;
504 -> 505 ;
506 [label=<gini = 0.581<br/>samples = 8<br/>value = [3.157, 2.058, 0.0, 0.704, 0.0]<br/>class = Atropelamento>, fillcolor="#f8dbc7"] ;
505 -> 506 ;
507 [label=<gini = 0.358<br/>samples = 19<br/>value = [15.787, 4.802, 0.0, 0.0, 0.0]<br/>class = Atropelamento>, fillcolor="#eda775"] ;
505 -> 507 ;
508 [label=<condicao_metereologica &le; 1.626<br/>gini = 0.253<br/>samples = 22<br/>value = [28.416, 4.116, 0.0, 0.704, 0.0]<br/>class = Atropelamento>, fillcolor="#e9965a"] ;
504 -> 508 ;
509 [label=<gini = 0.199<br/>samples = 16<br/>value = [25.259, 2.401, 0.0, 0.704, 0.0]<br/>class = Atropelamento>, fillcolor="#e89051"] ;
508 -> 509 ;
510 [label=<gini = 0.456<br/>samples = 6<br/>value = [3.157, 1.715, 0.0, 0.0, 0.0]<br/>class = Atropelamento>, fillcolor="#f3c5a5"] ;
508 -> 510 ;
511 [label=<gini = 0.413<br/>samples = 6<br/>value = [0.0, 1.715, 0.0, 0.704, 0.0]<br/>class = Colisão>, fillcolor="#b1f08a"] ;
503 -> 511 ;
512 [label=<uf &le; 1.584<br/>gini = 0.667<br/>samples = 549<br/>value = [262.058, 138.576, 24.019, 28.173, 85.129]<br/>class = Atropelamento>, fillcolor="#f7d8c2"] ;
502 -> 512 ;
513 [label=<dia_semana &le; 1.648<br/>gini = 0.679<br/>samples = 108<br/>value = [18.944, 31.557, 0.0, 4.226, 17.922]<br/>class = Colisão>, fillcolor="#e0f9d0"] ;
512 -> 513 ;
514 [label=<uso_solo &le; 1.637<br/>gini = 0.452<br/>samples = 57<br/>value = [0.0, 17.837, 0.0, 2.817, 4.48]<br/>class = Colisão>, fillcolor="#aaee7f"] ;
513 -> 514 ;
515 [label=<gini = 0.271<br/>samples = 35<br/>value = [0.0, 10.976, 0.0, 2.113, 0.0]<br/>class = Colisão>, fillcolor="#94ea5f"] ;
514 -> 515 ;
516 [label=<gini = 0.534<br/>samples = 22<br/>value = [0.0, 6.86, 0.0, 0.704, 4.48]<br/>class = Colisão>, fillcolor="#d5f7c1"] ;
514 -> 516 ;
517 [label=<condicao_metereologica &le; 1.626<br/>gini = 0.677<br/>samples = 51<br/>value = [18.944, 13.72, 0.0, 1.409, 13.441]<br/>class = Atropelamento>, fillcolor="#fbece0"] ;
513 -> 517 ;
518 [label=<gini = 0.648<br/>samples = 44<br/>value = [12.629, 12.691, 0.0, 1.409, 4.48]<br/>class = Colisão>, fillcolor="#fffffe"] ;
517 -> 518 ;
519 [label=<gini = 0.544<br/>samples = 7<br/>value = [6.315, 1.029, 0.0, 0.0, 8.961]<br/>class = Queda de ocupante de veículo>, fillcolor="#f8cbee"] ;
517 -> 519 ;
520 [label=<dia_semana &le; 1.634<br/>gini = 0.648<br/>samples = 441<br/>value = [243.114, 107.019, 24.019, 23.947, 67.207]<br/>class = Atropelamento>, fillcolor="#f5cfb4"] ;
512 -> 520 ;
521 [label=<uf &le; 1.624<br/>gini = 0.556<br/>samples = 205<br/>value = [132.608, 50.423, 0.0, 7.043, 26.883]<br/>class = Atropelamento>, fillcolor="#f2c19d"] ;
520 -> 521 ;
522 [label=<gini = 0.289<br/>samples = 22<br/>value = [25.259, 4.459, 0.0, 0.704, 0.0]<br/>class = Atropelamento>, fillcolor="#ea9a60"] ;
521 -> 522 ;
523 [label=<gini = 0.586<br/>samples = 183<br/>value = [107.349, 45.963, 0.0, 6.339, 26.883]<br/>class = Atropelamento>, fillcolor="#f4c8a9"] ;
521 -> 523 ;
524 [label=<uf &le; 1.636<br/>gini = 0.71<br/>samples = 236<br/>value = [110.507, 56.597, 24.019, 16.904, 40.324]<br/>class = Atropelamento>, fillcolor="#f8dcc7"] ;
520 -> 524 ;
525 [label=<gini = 0.567<br/>samples = 57<br/>value = [41.045, 13.72, 0.0, 0.704, 13.441]<br/>class = Atropelamento>, fillcolor="#f2c19d"] ;
524 -> 525 ;
526 [label=<gini = 0.745<br/>samples = 179<br/>value = [69.461, 42.876, 24.019, 16.199, 26.883]<br/>class = Atropelamento>, fillcolor="#fae6d8"] ;
524 -> 526 ;
527 [label=<uf &le; 1.672<br/>gini = 0.557<br/>samples = 76<br/>value = [91.563, 10.29, 16.012, 7.747, 17.922]<br/>class = Atropelamento>, fillcolor="#f0b58b"] ;
495 -> 527 ;
528 [label=<uf &le; 1.636<br/>gini = 0.233<br/>samples = 42<br/>value = [63.147, 5.831, 0.0, 3.522, 0.0]<br/>class = Atropelamento>, fillcolor="#e99355"] ;
527 -> 528 ;
529 [label=<condicao_metereologica &le; 1.621<br/>gini = 0.302<br/>samples = 27<br/>value = [34.731, 3.773, 0.0, 3.522, 0.0]<br/>class = Atropelamento>, fillcolor="#ea995f"] ;
528 -> 529 ;
530 [label=<dia_semana &le; 1.629<br/>gini = 0.39<br/>samples = 18<br/>value = [18.944, 2.401, 0.0, 3.522, 0.0]<br/>class = Atropelamento>, fillcolor="#eca470"] ;
529 -> 530 ;
531 [label=<gini = 0.55<br/>samples = 5<br/>value = [3.157, 0.686, 0.0, 1.409, 0.0]<br/>class = Atropelamento>, fillcolor="#f3c6a5"] ;
530 -> 531 ;
532 [label=<dia_semana &le; 1.673<br/>gini = 0.333<br/>samples = 13<br/>value = [15.787, 1.715, 0.0, 2.113, 0.0]<br/>class = Atropelamento>, fillcolor="#eb9d64"] ;
530 -> 532 ;
533 [label=<gini = 0.126<br/>samples = 5<br/>value = [9.472, 0.686, 0.0, 0.0, 0.0]<br/>class = Atropelamento>, fillcolor="#e78a47"] ;
532 -> 533 ;
534 [label=<gini = 0.492<br/>samples = 8<br/>value = [6.315, 1.029, 0.0, 2.113, 0.0]<br/>class = Atropelamento>, fillcolor="#f0b78e"] ;
532 -> 534 ;
535 [label=<gini = 0.147<br/>samples = 9<br/>value = [15.787, 1.372, 0.0, 0.0, 0.0]<br/>class = Atropelamento>, fillcolor="#e78c4a"] ;
529 -> 535 ;
536 [label=<uf &le; 1.657<br/>gini = 0.126<br/>samples = 15<br/>value = [28.416, 2.058, 0.0, 0.0, 0.0]<br/>class = Atropelamento>, fillcolor="#e78a47"] ;
528 -> 536 ;
537 [label=<gini = 0.0<br/>samples = 6<br/>value = [18.944, 0.0, 0.0, 0.0, 0.0]<br/>class = Atropelamento>, fillcolor="#e58139"] ;
536 -> 537 ;
538 [label=<gini = 0.293<br/>samples = 9<br/>value = [9.472, 2.058, 0.0, 0.0, 0.0]<br/>class = Atropelamento>, fillcolor="#eb9c64"] ;
536 -> 538 ;
539 [label=<uf &le; 1.683<br/>gini = 0.718<br/>samples = 34<br/>value = [28.416, 4.459, 16.012, 4.226, 17.922]<br/>class = Atropelamento>, fillcolor="#fae6d8"] ;
527 -> 539 ;
540 [label=<gini = 0.5<br/>samples = 7<br/>value = [9.472, 0.343, 0.0, 0.0, 13.441]<br/>class = Queda de ocupante de veículo>, fillcolor="#f8c6ed"] ;
539 -> 540 ;
541 [label=<uf &le; 1.726<br/>gini = 0.706<br/>samples = 27<br/>value = [18.944, 4.116, 16.012, 4.226, 4.48]<br/>class = Atropelamento>, fillcolor="#fdf3ed"] ;
539 -> 541 ;
542 [label=<gini = 0.364<br/>samples = 7<br/>value = [3.157, 1.372, 16.012, 0.0, 0.0]<br/>class = Evento externo>, fillcolor="#6decd4"] ;
541 -> 542 ;
543 [label=<condicao_metereologica &le; 1.621<br/>gini = 0.603<br/>samples = 20<br/>value = [15.787, 2.744, 0.0, 4.226, 4.48]<br/>class = Atropelamento>, fillcolor="#f2c09d"] ;
541 -> 543 ;
544 [label=<uf &le; 1.827<br/>gini = 0.535<br/>samples = 15<br/>value = [15.787, 2.058, 0.0, 2.113, 4.48]<br/>class = Atropelamento>, fillcolor="#f0b88f"] ;
543 -> 544 ;
545 [label=<gini = 0.231<br/>samples = 6<br/>value = [9.472, 0.686, 0.0, 0.704, 0.0]<br/>class = Atropelamento>, fillcolor="#e99254"] ;
544 -> 545 ;
546 [label=<gini = 0.654<br/>samples = 9<br/>value = [6.315, 1.372, 0.0, 1.409, 4.48]<br/>class = Atropelamento>, fillcolor="#fae6d7"] ;
544 -> 546 ;
547 [label=<gini = 0.37<br/>samples = 5<br/>value = [0.0, 0.686, 0.0, 2.113, 0.0]<br/>class = Perda de controle>, fillcolor="#7b79ed"] ;
543 -> 547 ;
548 [label=<causa_acidente &le; 2.265<br/>gini = 0.776<br/>samples = 323720<br/>value = [17703.156, 67937.061, 68356.89, 67946.535, 67395.139]<br/>class = Evento externo>, fillcolor="#ffffff"] ;
0 -> 548 [labeldistance=2.5, labelangle=-45, headlabel="False"] ;
549 [label=<causa_acidente &le; 1.378<br/>gini = 0.74<br/>samples = 279131<br/>value = [17084.319, 64528.22, 10568.177, 52390.362, 44320.75]<br/>class = Colisão>, fillcolor="#f3fded"] ;
548 -> 549 ;
550 [label=<causa_acidente &le; 1.119<br/>gini = 0.604<br/>samples = 97387<br/>value = [6049.446, 29394.31, 1393.078, 5556.329, 7675.035]<br/>class = Colisão>, fillcolor="#bbf29a"] ;
549 -> 550 ;
551 [label=<causa_acidente &le; 1.036<br/>gini = 0.467<br/>samples = 30778<br/>value = [2364.841, 9988.131, 280.217, 447.943, 1070.831]<br/>class = Colisão>, fillcolor="#aaee7f"] ;
550 -> 551 ;
552 [label=<tipo_pista &le; 1.686<br/>gini = 0.544<br/>samples = 16892<br/>value = [2169.086, 5377.38, 120.093, 240.875, 766.159]<br/>class = Colisão>, fillcolor="#bef29d"] ;
551 -> 552 ;
553 [label=<fase_dia &le; 1.608<br/>gini = 0.473<br/>samples = 11833<br/>value = [1041.919, 3845.837, 64.05, 128.889, 448.046]<br/>class = Colisão>, fillcolor="#adef83"] ;
552 -> 553 ;
554 [label=<tipo_pista &le; 1.556<br/>gini = 0.537<br/>samples = 3410<br/>value = [492.544, 1089.059, 16.012, 32.398, 138.894]<br/>class = Colisão>, fillcolor="#c1f3a2"] ;
553 -> 554 ;
555 [label=<uf &le; 1.608<br/>gini = 0.62<br/>samples = 330<br/>value = [75.776, 100.159, 0.0, 5.635, 26.883]<br/>class = Colisão>, fillcolor="#e7fadb"] ;
554 -> 555 ;
556 [label=<uf &le; 1.498<br/>gini = 0.563<br/>samples = 202<br/>value = [25.259, 64.829, 0.0, 0.704, 17.922]<br/>class = Colisão>, fillcolor="#c0f3a1"] ;
555 -> 556 ;
557 [label=<gini = 0.584<br/>samples = 69<br/>value = [18.944, 21.267, 0.0, 0.0, 4.48]<br/>class = Colisão>, fillcolor="#f3fded"] ;
556 -> 557 ;
558 [label=<gini = 0.483<br/>samples = 133<br/>value = [6.315, 43.562, 0.0, 0.704, 13.441]<br/>class = Colisão>, fillcolor="#b0f089"] ;
556 -> 558 ;
559 [label=<dia_semana &le; 1.648<br/>gini = 0.607<br/>samples = 128<br/>value = [50.517, 35.33, 0.0, 4.93, 8.961]<br/>class = Atropelamento>, fillcolor="#f9e1d0"] ;
555 -> 559 ;
560 [label=<gini = 0.557<br/>samples = 68<br/>value = [41.045, 17.837, 0.0, 0.704, 8.961]<br/>class = Atropelamento>, fillcolor="#f3c5a4"] ;
559 -> 560 ;
561 [label=<gini = 0.575<br/>samples = 60<br/>value = [9.472, 17.494, 0.0, 4.226, 0.0]<br/>class = Colisão>, fillcolor="#cef5b6"] ;
559 -> 561 ;
562 [label=<dia_semana &le; 1.629<br/>gini = 0.522<br/>samples = 3080<br/>value = [416.768, 988.9, 16.012, 26.764, 112.012]<br/>class = Colisão>, fillcolor="#bdf29c"] ;
554 -> 562 ;
563 [label=<uf &le; 1.851<br/>gini = 0.505<br/>samples = 966<br/>value = [97.877, 312.826, 0.0, 7.747, 53.766]<br/>class = Colisão>, fillcolor="#b3f08d"] ;
562 -> 563 ;
564 [label=<gini = 0.516<br/>samples = 920<br/>value = [97.877, 297.047, 0.0, 7.747, 53.766]<br/>class = Colisão>, fillcolor="#b6f191"] ;
563 -> 564 ;
565 [label=<gini = 0.0<br/>samples = 46<br/>value = [0.0, 15.778, 0.0, 0.0, 0.0]<br/>class = Colisão>, fillcolor="#7be539"] ;
563 -> 565 ;
566 [label=<uf &le; 1.488<br/>gini = 0.525<br/>samples = 2114<br/>value = [318.89, 676.074, 16.012, 19.016, 58.246]<br/>class = Colisão>, fillcolor="#c2f3a3"] ;
562 -> 566 ;
567 [label=<gini = 0.563<br/>samples = 305<br/>value = [69.461, 95.357, 0.0, 1.409, 13.441]<br/>class = Colisão>, fillcolor="#e0f9d0"] ;
566 -> 567 ;
568 [label=<gini = 0.513<br/>samples = 1809<br/>value = [249.429, 580.717, 16.012, 17.608, 44.805]<br/>class = Colisão>, fillcolor="#bdf29b"] ;
566 -> 568 ;
569 [label=<fase_dia &le; 1.758<br/>gini = 0.433<br/>samples = 8423<br/>value = [549.376, 2756.778, 48.037, 96.491, 309.152]<br/>class = Colisão>, fillcolor="#a4ed77"] ;
553 -> 569 ;
570 [label=<tipo_pista &le; 1.556<br/>gini = 0.416<br/>samples = 7971<br/>value = [448.341, 2615.457, 40.031, 92.969, 300.191]<br/>class = Colisão>, fillcolor="#a1ed72"] ;
569 -> 570 ;
571 [label=<uso_solo &le; 1.637<br/>gini = 0.541<br/>samples = 727<br/>value = [88.405, 230.16, 0.0, 14.086, 35.844]<br/>class = Colisão>, fillcolor="#bcf29b"] ;
570 -> 571 ;
572 [label=<gini = 0.501<br/>samples = 586<br/>value = [66.304, 186.941, 0.0, 11.269, 17.922]<br/>class = Colisão>, fillcolor="#b5f090"] ;
571 -> 572 ;
573 [label=<gini = 0.637<br/>samples = 141<br/>value = [22.101, 43.219, 0.0, 2.817, 17.922]<br/>class = Colisão>, fillcolor="#d3f6be"] ;
571 -> 573 ;
574 [label=<uf &le; 1.53<br/>gini = 0.398<br/>samples = 7244<br/>value = [359.936, 2385.297, 40.031, 78.883, 264.347]<br/>class = Colisão>, fillcolor="#9eec6e"] ;
570 -> 574 ;
575 [label=<gini = 0.402<br/>samples = 1143<br/>value = [91.563, 374.911, 8.006, 11.973, 13.441]<br/>class = Colisão>, fillcolor="#a3ed76"] ;
574 -> 575 ;
576 [label=<gini = 0.395<br/>samples = 6101<br/>value = [268.373, 2010.386, 32.025, 66.91, 250.906]<br/>class = Colisão>, fillcolor="#9eec6d"] ;
574 -> 576 ;
577 [label=<uf &le; 1.875<br/>gini = 0.561<br/>samples = 452<br/>value = [101.035, 141.32, 8.006, 3.522, 8.961]<br/>class = Colisão>, fillcolor="#def9ce"] ;
569 -> 577 ;
578 [label=<dia_semana &le; 1.629<br/>gini = 0.538<br/>samples = 433<br/>value = [101.035, 135.146, 0.0, 3.522, 8.961]<br/>class = Colisão>, fillcolor="#e0f9d1"] ;
577 -> 578 ;
579 [label=<gini = 0.553<br/>samples = 106<br/>value = [41.045, 31.214, 0.0, 0.704, 4.48]<br/>class = Atropelamento>, fillcolor="#f9e4d5"] ;
578 -> 579 ;
580 [label=<gini = 0.508<br/>samples = 327<br/>value = [59.989, 103.932, 0.0, 2.817, 4.48]<br/>class = Colisão>, fillcolor="#cbf5b1"] ;
578 -> 580 ;
581 [label=<dia_semana &le; 1.629<br/>gini = 0.492<br/>samples = 19<br/>value = [0.0, 6.174, 8.006, 0.0, 0.0]<br/>class = Evento externo>, fillcolor="#d2f9f2"] ;
577 -> 581 ;
582 [label=<gini = 0.291<br/>samples = 6<br/>value = [0.0, 1.715, 8.006, 0.0, 0.0]<br/>class = Evento externo>, fillcolor="#63ebd1"] ;
581 -> 582 ;
583 [label=<gini = 0.0<br/>samples = 13<br/>value = [0.0, 4.459, 0.0, 0.0, 0.0]<br/>class = Colisão>, fillcolor="#7be539"] ;
581 -> 583 ;
584 [label=<fase_dia &le; 1.608<br/>gini = 0.623<br/>samples = 5059<br/>value = [1127.167, 1531.543, 56.043, 111.986, 318.113]<br/>class = Colisão>, fillcolor="#e5fad7"] ;
552 -> 584 ;
585 [label=<uf &le; 1.579<br/>gini = 0.586<br/>samples = 1485<br/>value = [555.69, 430.479, 16.012, 25.355, 71.687]<br/>class = Atropelamento>, fillcolor="#fae7da"] ;
584 -> 585 ;
586 [label=<uso_solo &le; 1.637<br/>gini = 0.575<br/>samples = 438<br/>value = [119.979, 131.716, 0.0, 9.156, 13.441]<br/>class = Colisão>, fillcolor="#f5fdf0"] ;
585 -> 586 ;
587 [label=<uf &le; 1.53<br/>gini = 0.555<br/>samples = 318<br/>value = [75.776, 98.444, 0.0, 3.522, 8.961]<br/>class = Colisão>, fillcolor="#e4fad7"] ;
586 -> 587 ;
588 [label=<gini = 0.524<br/>samples = 182<br/>value = [53.675, 55.225, 0.0, 2.817, 0.0]<br/>class = Colisão>, fillcolor="#fbfefa"] ;
587 -> 588 ;
589 [label=<gini = 0.567<br/>samples = 136<br/>value = [22.101, 43.219, 0.0, 0.704, 8.961]<br/>class = Colisão>, fillcolor="#caf5b0"] ;
587 -> 589 ;
590 [label=<condicao_metereologica &le; 1.621<br/>gini = 0.594<br/>samples = 120<br/>value = [44.203, 33.272, 0.0, 5.635, 4.48]<br/>class = Atropelamento>, fillcolor="#fae6d7"] ;
586 -> 590 ;
591 [label=<gini = 0.554<br/>samples = 87<br/>value = [18.944, 26.069, 0.0, 3.522, 0.0]<br/>class = Colisão>, fillcolor="#dff9cf"] ;
590 -> 591 ;
592 [label=<gini = 0.532<br/>samples = 33<br/>value = [25.259, 7.203, 0.0, 2.113, 4.48]<br/>class = Atropelamento>, fillcolor="#f0b88f"] ;
590 -> 592 ;
593 [label=<uf &le; 1.636<br/>gini = 0.584<br/>samples = 1047<br/>value = [435.712, 298.762, 16.012, 16.199, 58.246]<br/>class = Atropelamento>, fillcolor="#f8decb"] ;
585 -> 593 ;
594 [label=<uso_solo &le; 1.637<br/>gini = 0.543<br/>samples = 219<br/>value = [135.765, 57.626, 0.0, 1.409, 26.883]<br/>class = Atropelamento>, fillcolor="#f3c3a1"] ;
593 -> 594 ;
595 [label=<gini = 0.461<br/>samples = 154<br/>value = [110.507, 39.446, 0.0, 1.409, 8.961]<br/>class = Atropelamento>, fillcolor="#f0b58b"] ;
594 -> 595 ;
596 [label=<gini = 0.657<br/>samples = 65<br/>value = [25.259, 18.18, 0.0, 0.0, 17.922]<br/>class = Atropelamento>, fillcolor="#fbeadf"] ;
594 -> 596 ;
597 [label=<uf &le; 1.645<br/>gini = 0.589<br/>samples = 828<br/>value = [299.946, 241.137, 16.012, 14.791, 31.363]<br/>class = Atropelamento>, fillcolor="#fbebdf"] ;
593 -> 597 ;
598 [label=<gini = 0.493<br/>samples = 130<br/>value = [25.259, 41.161, 0.0, 1.409, 0.0]<br/>class = Colisão>, fillcolor="#cef5b5"] ;
597 -> 598 ;
599 [label=<gini = 0.592<br/>samples = 698<br/>value = [274.688, 199.975, 16.012, 13.382, 31.363]<br/>class = Atropelamento>, fillcolor="#f9e3d3"] ;
597 -> 599 ;
600 [label=<fase_dia &le; 1.758<br/>gini = 0.616<br/>samples = 3574<br/>value = [571.477, 1101.065, 40.031, 86.631, 246.426]<br/>class = Colisão>, fillcolor="#d0f6b8"] ;
584 -> 600 ;
601 [label=<uf &le; 1.624<br/>gini = 0.606<br/>samples = 3281<br/>value = [460.97, 1017.027, 32.025, 80.292, 232.984]<br/>class = Colisão>, fillcolor="#c9f4ae"] ;
600 -> 601 ;
602 [label=<condicao_metereologica &le; 1.621<br/>gini = 0.59<br/>samples = 1418<br/>value = [138.923, 447.286, 24.019, 28.877, 116.492]<br/>class = Colisão>, fillcolor="#bdf29c"] ;
601 -> 602 ;
603 [label=<gini = 0.626<br/>samples = 998<br/>value = [101.035, 311.454, 24.019, 21.834, 107.531]<br/>class = Colisão>, fillcolor="#c4f3a7"] ;
602 -> 603 ;
604 [label=<gini = 0.444<br/>samples = 420<br/>value = [37.888, 135.832, 0.0, 7.043, 8.961]<br/>class = Colisão>, fillcolor="#aaee7f"] ;
602 -> 604 ;
605 [label=<uf &le; 1.636<br/>gini = 0.61<br/>samples = 1863<br/>value = [322.048, 569.741, 8.006, 51.415, 116.492]<br/>class = Colisão>, fillcolor="#d3f6bd"] ;
601 -> 605 ;
606 [label=<gini = 0.605<br/>samples = 171<br/>value = [75.776, 46.992, 0.0, 4.226, 17.922]<br/>class = Atropelamento>, fillcolor="#f7dac5"] ;
605 -> 606 ;
